{"learner":{"attributes":{"best_iteration":"99","best_ntree_limit":"100","scikit_learn":"{\"n_estimators\": 100, \"objective\": \"reg:squarederror\", \"max_depth\": null, \"learning_rate\": 0.35, \"verbosity\": null, \"booster\": null, \"tree_method\": null, \"gamma\": null, \"min_child_weight\": null, \"max_delta_step\": null, \"subsample\": null, \"colsample_bytree\": null, \"colsample_bylevel\": null, \"colsample_bynode\": null, \"reg_alpha\": null, \"reg_lambda\": null, \"scale_pos_weight\": null, \"base_score\": null, \"missing\": NaN, \"num_parallel_tree\": null, \"random_state\": null, \"n_jobs\": null, \"monotone_constraints\": null, \"interaction_constraints\": null, \"importance_type\": null, \"gpu_id\": null, \"validate_parameters\": null, \"predictor\": null, \"enable_categorical\": false, \"_estimator_type\": \"regressor\"}"},"feature_names":[],"feature_types":[],"gradient_booster":{"model":{"gbtree_model_param":{"num_trees":"100","size_leaf_vector":"0"},"tree_info":[0,0,0,0,0,0,0,0,0,0,0,0,0,0,0,0,0,0,0,0,0,0,0,0,0,0,0,0,0,0,0,0,0,0,0,0,0,0,0,0,0,0,0,0,0,0,0,0,0,0,0,0,0,0,0,0,0,0,0,0,0,0,0,0,0,0,0,0,0,0,0,0,0,0,0,0,0,0,0,0,0,0,0,0,0,0,0,0,0,0,0,0,0,0,0,0,0,0,0,0],"trees":[{"base_weights":[7.5044365E1,6.3783966E1,9.735139E1,6.938933E1,3.6362885E1,2.62312E1,1.0086681E2,7.4082985E1,4.089301E1,9.8931E0,3.7546932E1,3.5014935E1,1.0398581E2,1.113791E1,7.509881E1,1.6925722E1,4.7765026E1,2.7967005E1,1.0558753E2,7.972561E1,4.815638E1,8.0587906E1,2.2185715E1,2.054157E1,5.2492386E1],"categories":[],"categories_nodes":[],"categories_segments":[],"categories_sizes":[],"default_left":[true,true,true,true,true,false,true,true,true,false,false,false,true,false,true,false,false,false,false,true,true,false,false,false,false],"id":0,"left_children":[1,3,5,7,9,-1,11,13,15,-1,-1,-1,17,-1,19,-1,-1,-1,-1,21,23,-1,-1,-1,-1],"loss_changes":[2.1421E4,9.158406E3,6.10475E3,5.2631562E3,9.866797E1,0E0,3.136875E3,2.4885E3,1.00328125E3,0E0,0E0,0E0,8.21625E2,0E0,2.5182188E3,0E0,0E0,0E0,0E0,2.9596875E2,1.19103516E2,0E0,0E0,0E0,0E0],"parents":[2147483647,0,0,1,1,2,2,3,3,4,4,6,6,7,7,8,8,12,12,14,14,19,19,20,20],"right_children":[2,4,6,8,10,-1,12,14,16,-1,-1,-1,18,-1,20,-1,-1,-1,-1,22,24,-1,-1,-1,-1],"split_conditions":[6.4854187E-1,5.8403575E-1,2.6675814E-1,7.963014E-1,8.7175444E-2,9.18092E0,1.035243E-1,3.418996E-1,5.4633653E-1,3.462585E0,1.3141426E1,1.2255227E1,5.2095234E-1,3.8982685E0,6.566093E-1,5.9240026E0,1.6717758E1,9.788451E0,3.6955635E1,9.2494863E-1,4.460445E-1,2.8205767E1,7.765E0,7.1895494E0,1.8372335E1],"split_indices":[6,2,1,1,1,0,2,0,5,0,0,0,4,0,4,0,0,0,0,3,1,0,0,0,0],"split_type":[0,0,0,0,0,0,0,0,0,0,0,0,0,0,0,0,0,0,0,0,0,0,0,0,0],"sum_hessian":[1.09E2,7.5E1,3.4E1,6.1E1,1.4E1,2E0,3.2E1,5.1E1,1E1,1E0,1.3E1,2E0,3E1,1E0,5E1,3E0,7E0,1E0,2.9E1,4.1E1,9E0,4E1,1E0,2E0,7E0],"tree_param":{"num_deleted":"0","num_feature":"7","num_nodes":"25","size_leaf_vector":"0"}},{"base_weights":[5.035026E1,8.492917E1,4.565029E1,1.5713625E1,8.979298E1,4.8802788E1,2.474281E1,5.10861E1,2.656931E1,2.5753227E1,5.2984867E0,5.1604816E1,6.0911827E0,7.343884E0,2.788948E1,9.531389E0,2.7662584E1,9.188776E0,5.2053837E1,2.9086802E1,5.9980917E0,5.3350407E1,3.202231E1,6.612612E0,3.067296E1],"categories":[],"categories_nodes":[],"categories_segments":[],"categories_sizes":[],"default_left":[true,true,true,false,false,true,true,true,true,true,false,true,false,false,false,false,true,false,true,true,false,false,false,false,false],"id":1,"left_children":[1,3,5,-1,-1,7,9,11,13,15,-1,17,-1,-1,-1,-1,19,-1,21,23,-1,-1,-1,-1,-1],"loss_changes":[1.4000125E4,2.6288438E3,5.3176406E3,0E0,0E0,2.9577812E3,1.5825E2,1.4594844E3,4.899121E1,1.6996289E2,0E0,9.501094E2,0E0,0E0,0E0,0E0,1.9579395E2,0E0,2.1354688E2,1.8929492E2,0E0,0E0,0E0,0E0,0E0],"parents":[2147483647,0,0,1,1,2,2,5,5,6,6,7,7,8,8,9,9,11,11,16,16,18,18,19,19],"right_children":[2,4,6,-1,-1,8,10,12,14,16,-1,18,-1,-1,-1,-1,20,-1,22,24,-1,-1,-1,-1,-1],"split_conditions":[1.5265375E-1,2.8080553E-1,5.8403575E-1,5.4997687E0,3.1427542E1,8.093101E-1,5.7080114E-1,8.259693E-1,8.241458E-1,1.06228694E-1,1.8544704E0,3.418996E-1,2.131914E0,2.5703595E0,9.761318E0,3.3359861E0,5.828815E-1,3.2160716E0,7.359917E-1,5.871366E-1,2.099332E0,1.8672642E1,1.1207808E1,2.314414E0,1.0735536E1],"split_indices":[5,1,2,0,0,1,1,6,1,1,0,0,0,0,0,0,4,0,4,2,0,0,0,0,0],"split_type":[0,0,0,0,0,0,0,0,0,0,0,0,0,0,0,0,0,0,0,0,0,0,0,0,0],"sum_hessian":[1.09E2,1.1E1,9.8E1,1E0,1E1,8.4E1,1.4E1,7.5E1,9E0,1.3E1,1E0,7.4E1,1E0,1E0,8E0,2E0,1.1E1,1E0,7.3E1,1E1,1E0,6.7E1,6E0,1E0,9E0],"tree_param":{"num_deleted":"0","num_feature":"7","num_nodes":"25","size_leaf_vector":"0"}},{"base_weights":[3.3680645E1,2.4670622E1,4.256751E1,4.016215E0,2.8459654E1,6.125787E1,3.7468147E1,9.145417E0,-5.963943E0,1.9341103E1,3.129394E1,1.296374E1,6.518347E1,3.9196533E1,9.953095E0,1.1557674E1,-2.6640625E0,-1.1997684E1,6.068639E0,2.6960367E1,1.3597361E1,1.391403E1,3.308767E1,4.6115425E1,2.8393902E1,6.7963295E0,3.3737503E1,4.9551914E1,1.6544994E1,9.952718E0,3.2648037E1,1.5593427E1,3.5175976E1,1.4365944E1,5.0592915E1,1.0197544E0,1.1931021E1,3.5216797E1,1.0634072E1],"categories":[],"categories_nodes":[],"categories_segments":[],"categories_sizes":[],"default_left":[true,true,true,true,true,true,true,true,true,true,true,false,false,true,false,false,false,false,false,false,false,false,true,true,true,false,true,true,false,true,true,false,false,false,false,false,false,false,false],"id":2,"left_children":[1,3,5,7,9,11,13,15,17,19,21,-1,-1,23,-1,-1,-1,-1,-1,-1,-1,-1,25,27,29,-1,31,33,-1,35,37,-1,-1,-1,-1,-1,-1,-1,-1],"loss_changes":[7.757625E3,4.3465312E3,2.8514531E3,5.6644525E2,6.3528125E2,1.0508125E3,1.749918E3,2.3020282E2,3.632155E2,2.4609326E2,6.307344E2,0E0,0E0,1.8297734E3,0E0,0E0,0E0,0E0,0E0,0E0,0E0,0E0,3.0034375E2,1.6190078E3,1.1656367E3,0E0,2.3448047E2,4.2390625E1,0E0,7.6193756E1,4.737295E2,0E0,0E0,0E0,0E0,0E0,0E0,0E0,0E0],"parents":[2147483647,0,0,1,1,2,2,3,3,4,4,5,5,6,6,7,7,8,8,9,9,10,10,13,13,22,22,23,23,24,24,26,26,27,27,29,29,30,30],"right_children":[2,4,6,8,10,12,14,16,18,20,22,-1,-1,24,-1,-1,-1,-1,-1,-1,-1,-1,26,28,30,-1,32,34,-1,36,38,-1,-1,-1,-1,-1,-1,-1,-1],"split_conditions":[5.557983E-1,5.2596253E-1,1.5118119E-1,4.82103E-1,3.4952062E-1,2.8080553E-1,9.1248983E-1,7.2574675E-1,5.724238E-1,2.2448419E-1,2.4076355E-1,4.537309E0,2.2814215E1,6.6253877E-1,3.4835835E0,4.045186E0,-9.3242186E-1,-4.199189E0,2.1240234E0,9.436129E0,4.759076E0,4.8699102E0,1.757297E-2,6.6765034E-1,6.225419E-1,2.3787153E0,3.418996E-1,2.330296E-1,5.790748E0,5.653033E-1,8.259693E-1,5.4576993E0,1.2311591E1,5.0280805E0,1.770752E1,3.5691404E-1,4.175857E0,1.2325879E1,3.7219253E0],"split_indices":[6,5,5,6,4,1,3,1,0,4,2,0,0,4,0,0,0,0,0,0,0,0,3,5,0,0,0,1,0,0,6,0,0,0,0,0,0,0,0],"split_type":[0,0,0,0,0,0,0,0,0,0,0,0,0,0,0,0,0,0,0,0,0,0,0,0,0,0,0,0,0,0,0,0,0,0,0,0,0,0,0],"sum_hessian":[1.09E2,5.6E1,5.3E1,9E0,4.7E1,9E0,4.4E1,6E0,3E0,1.3E1,3.4E1,1E0,8E0,4.1E1,3E0,5E0,1E0,2E0,1E0,4E0,9E0,4E0,3E1,2.3E1,1.8E1,1E0,2.9E1,2E1,3E0,4E0,1.4E1,3E0,2.6E1,1E0,1.9E1,1E0,3E0,1.2E1,2E0],"tree_param":{"num_deleted":"0","num_feature":"7","num_nodes":"39","size_leaf_vector":"0"}},{"base_weights":[2.298508E1,1.6876194E1,2.9474295E1,2.7142994E0,1.9371048E1,4.2552765E1,2.5747343E1,6.3892016E0,-4.3953547E0,1.016822E1,2.0632713E1,1.0695086E1,4.4904163E1,4.1933056E1,2.2514141E1,-3.0792618E-1,9.129639E0,-9.198224E0,5.006627E0,2.0877457E0,1.1024323E1,5.4723744E0,2.123877E1,5.1420853E1,1.530497E1,1.2065538E1,2.534076E1,1.7359619E0,-2.1978512E0,1.1836422E1,3.0758667E0,1.1289133E1,2.2621876E1,1.5433066E1,3.15598E0,1.3394213E1,2.8533104E1,2.708578E0,1.2267796E1,2.4061258E1,1.342702E1,4.142762E0,1.6624325E1,5.574898E0,4.9137497E-1,1.43611145E1,3.3129501E0,6.7238173E0,3.0377842E1],"categories":[],"categories_nodes":[],"categories_segments":[],"categories_sizes":[],"default_left":[true,true,true,true,true,true,true,true,true,true,true,false,false,true,true,true,false,false,false,false,true,false,true,false,false,true,true,false,false,false,false,true,true,true,true,true,true,false,false,false,false,false,false,false,false,false,false,false,false],"id":3,"left_children":[1,3,5,7,9,11,13,15,17,19,21,-1,-1,23,25,27,-1,-1,-1,-1,29,-1,31,-1,-1,33,35,-1,-1,-1,-1,37,39,41,43,45,47,-1,-1,-1,-1,-1,-1,-1,-1,-1,-1,-1,-1],"loss_changes":[3.8631875E3,2.032002E3,1.4390078E3,2.8935565E2,3.707461E2,2.688457E2,1.3061738E3,1.3128262E2,2.2667804E2,3.2325806E1,2.7885742E2,0E0,0E0,7.288574E2,8.165488E2,1.5403771E1,0E0,0E0,0E0,0E0,8.777222E0,0E0,3.0883398E2,0E0,0E0,2.5132544E2,7.2381055E2,0E0,0E0,0E0,0E0,2.5554016E1,1.4015234E2,2.5276978E1,2.3042473E1,3.0403076E1,6.808574E2,0E0,0E0,0E0,0E0,0E0,0E0,0E0,0E0,0E0,0E0,0E0,0E0],"parents":[2147483647,0,0,1,1,2,2,3,3,4,4,5,5,6,6,7,7,8,8,9,9,10,10,13,13,14,14,15,15,20,20,22,22,25,25,26,26,31,31,32,32,33,33,34,34,35,35,36,36],"right_children":[2,4,6,8,10,12,14,16,18,20,22,-1,-1,24,26,28,-1,-1,-1,-1,30,-1,32,-1,-1,34,36,-1,-1,-1,-1,38,40,42,44,46,48,-1,-1,-1,-1,-1,-1,-1,-1,-1,-1,-1,-1],"split_conditions":[5.599992E-1,5.0350046E-1,1.5118119E-1,4.82103E-1,3.3984905E-1,2.8080553E-1,5.724213E-1,3.742859E-1,5.724238E-1,2.9759842E-1,1.6300157E-1,3.74328E0,1.5716457E1,6.307757E-1,6.459996E-1,3.531379E-1,3.1953735E0,-3.2193785E0,1.7523195E0,7.30711E-1,7.805313E-1,1.915331E0,2.7708805E-1,1.7997297E1,5.3567395E0,6.5002644E-1,5.932281E-1,6.075867E-1,-7.692479E-1,4.1427474E0,1.0765533E0,7.151011E-1,4.9814904E-1,4.620978E-1,4.1846937E-1,8.7592435E-1,5.61064E-1,9.4800234E-1,4.2937284E0,8.42144E0,4.699457E0,1.4499668E0,5.8185134E0,1.9512142E0,1.7198123E-1,5.02639E0,1.1595325E0,2.353336E0,1.0632244E1],"split_indices":[6,5,5,6,1,1,6,6,0,3,6,0,0,5,6,0,0,0,0,0,3,0,2,0,0,4,0,0,0,0,0,1,3,0,3,3,4,0,0,0,0,0,0,0,0,0,0,0,0],"split_type":[0,0,0,0,0,0,0,0,0,0,0,0,0,0,0,0,0,0,0,0,0,0,0,0,0,0,0,0,0,0,0,0,0,0,0,0,0,0,0,0,0,0,0,0,0,0,0,0,0],"sum_hessian":[1.09E2,5.8E1,5.1E1,9E0,4.9E1,9E0,4.2E1,6E0,3E0,7E0,4.2E1,1E0,8E0,5E0,3.7E1,2E0,4E0,2E0,1E0,1E0,6E0,2E0,4E1,3E0,2E0,9E0,2.8E1,1E0,1E0,5E0,1E0,6E0,3.4E1,6E0,3E0,7E0,2.1E1,1E0,5E0,2.8E1,6E0,1E0,5E0,1E0,2E0,6E0,1E0,2E0,1.9E1],"tree_param":{"num_deleted":"0","num_feature":"7","num_nodes":"49","size_leaf_vector":"0"}},{"base_weights":[1.5841863E1,1.1355898E1,2.0452127E1,1.9209601E0,1.3049643E1,1.4236906E1,2.4403677E1,-2.5089016E0,5.2923512E0,3.3480408E0,1.3391241E1,1.9978647E1,7.3087564E0,2.7508345E1,9.829334E0,2.8704689E0,-7.0519714E0,-3.2338777E-1,8.181068E0,1.3958747E1,5.832446E0,2.271829E1,8.819787E0,8.451119E0,1.0646273E0,3.70603E0,2.834569E1,-8.5820465E0,-1.9959106E0,1.328146E0,-1.8132277E0,1.1556817E1,1.7671894E1,2.5821857E0,1.0597493E1,-2.1518574E0,3.7487984E0,8.713782E0,2.9734327E1,1.2817135E1,-3.638317E0,1.8955973E1,6.2169266E0,4.599291E0,3.7672043E-1,4.0610275E0,1.2399874E1],"categories":[],"categories_nodes":[],"categories_segments":[],"categories_sizes":[],"default_left":[true,true,true,true,true,true,true,true,true,false,true,true,true,true,false,false,true,true,false,true,false,false,false,true,true,false,true,false,false,false,false,true,true,true,true,false,false,false,false,false,false,false,false,false,false,false,false],"id":4,"left_children":[1,3,5,7,9,11,13,15,17,-1,19,21,23,25,-1,-1,27,29,-1,31,-1,-1,-1,33,35,-1,37,-1,-1,-1,-1,39,41,43,45,-1,-1,-1,-1,-1,-1,-1,-1,-1,-1,-1,-1],"loss_changes":[2.042709E3,9.0179395E2,9.542363E2,1.6262595E2,1.1755371E2,7.689126E2,1.1323145E3,1.4243674E2,9.997934E1,0E0,1.20200195E2,1.6648535E2,7.659943E1,3.9321875E2,0E0,0E0,6.0794525E0,9.789794E0,0E0,1.7927441E2,0E0,0E0,0E0,9.860455E1,3.3967663E1,0E0,3.9517773E2,0E0,0E0,0E0,0E0,6.020032E2,1.02788086E2,1.6061975E1,3.211212E1,0E0,0E0,0E0,0E0,0E0,0E0,0E0,0E0,0E0,0E0,0E0,0E0],"parents":[2147483647,0,0,1,1,2,2,3,3,4,4,5,5,6,6,7,7,8,8,10,10,11,11,12,12,13,13,16,16,17,17,19,19,23,23,24,24,26,26,31,31,32,32,33,33,34,34],"right_children":[2,4,6,8,10,12,14,16,18,-1,20,22,24,26,-1,-1,28,30,-1,32,-1,-1,-1,34,36,-1,38,-1,-1,-1,-1,40,42,44,46,-1,-1,-1,-1,-1,-1,-1,-1,-1,-1,-1,-1],"split_conditions":[5.5810463E-1,5.2596253E-1,6.822276E-1,5.659618E-1,1.06228694E-1,6.719686E-1,8.9924085E-1,3.8481897E-1,4.220622E-1,1.1718143E0,6.5073633E-1,6.6765034E-1,8.1579655E-1,5.011423E-1,3.4402668E0,1.0046641E0,4.803613E-1,3.893652E-1,2.863374E0,5.3363776E-1,2.041356E0,7.9514017E0,3.0869255E0,6.459996E-1,8.6250395E-1,1.2971104E0,2.6675814E-1,-3.0037162E0,-6.985687E-1,4.6485108E-1,-6.3462967E-1,5.241721E-1,6.7947865E-1,4.1846937E-1,7.202251E-1,-7.5315005E-1,1.3120794E0,3.0498238E0,1.0407015E1,4.485997E0,-1.2734109E0,6.63459E0,2.1759243E0,1.6097518E0,1.3185215E-1,1.4213597E0,4.339956E0],"split_indices":[6,5,3,4,1,4,3,0,6,0,4,5,6,4,0,0,0,0,0,0,0,0,0,6,0,0,1,0,0,0,0,0,0,3,4,0,0,0,0,0,0,0,0,0,0,0,0],"split_type":[0,0,0,0,0,0,0,0,0,0,0,0,0,0,0,0,0,0,0,0,0,0,0,0,0,0,0,0,0,0,0,0,0,0,0,0,0,0,0,0,0,0,0,0,0,0,0],"sum_hessian":[1.09E2,5.7E1,5.2E1,9E0,4.8E1,2.2E1,3E1,4E0,5E0,2E0,4.6E1,1.1E1,1.1E1,2.4E1,6E0,2E0,2E0,2E0,3E0,4.2E1,4E0,8E0,3E0,9E0,2E0,1E0,2.3E1,1E0,1E0,1E0,1E0,2.8E1,1.4E1,3E0,6E0,1E0,1E0,2E0,2.1E1,2.6E1,2E0,1.2E1,2E0,1E0,2E0,2E0,4E0],"tree_param":{"num_deleted":"0","num_feature":"7","num_nodes":"47","size_leaf_vector":"0"}},{"base_weights":[1.0774726E1,2.3311115E1,9.56294E0,2.6278625E1,8.616551E0,7.4575E0,1.239315E1,2.8225554E1,7.2985334E0,9.532329E0,3.3461077E0,1.04273405E1,2.4854671E1,1.1720467E1,2.6981032E0,6.419007E0,2.5044122E-1,2.1432943E0,1.2564977E1,2.9770483E1,2.5957127E0,4.5951715E0,1.4555347E1,-5.0419755E0,4.97834E0,1.8189621E0,7.239132E0,5.0934286E0,-2.8077312E0,8.465269E0,-2.428571E0,1.8885504E1,9.820229E0,5.4378567E0,8.162861E-1,6.639156E0,1.6027441E1,-1.20895E0,-6.3540134E0,7.3973107E0,1.05298996E-1,8.309501E0,2.328561E0,6.3101196E-1,-4.9971795E0,2.2453175E0,-3.8124123E0,7.7830977E0,2.1289124E1,1.162449E1,4.9841766E0],"categories":[],"categories_nodes":[],"categories_segments":[],"categories_sizes":[],"default_left":[true,true,true,true,false,true,true,false,false,true,true,true,true,true,true,true,true,true,true,false,false,true,true,true,true,false,true,false,true,false,true,true,true,false,false,false,false,false,false,false,false,false,false,false,false,false,false,false,false,false,false],"id":5,"left_children":[1,3,5,7,-1,9,11,-1,-1,13,15,17,19,21,23,25,27,29,31,-1,-1,33,35,37,39,-1,41,-1,43,-1,45,47,49,-1,-1,-1,-1,-1,-1,-1,-1,-1,-1,-1,-1,-1,-1,-1,-1,-1,-1],"loss_changes":[1.4481338E3,1.6602539E2,5.153799E2,5.266455E1,0E0,4.884602E2,7.697046E2,0E0,0E0,5.665459E2,2.0767117E2,6.459839E2,4.698286E2,5.390962E2,2.1924203E2,2.8331055E1,1.9202927E2,2.806875E2,3.349878E2,0E0,0E0,2.7405258E1,1.383125E2,7.405533E0,1.0531076E2,0E0,2.7955902E1,0E0,6.338488E1,0E0,4.7367596E1,4.7792236E1,1.4274805E2,0E0,0E0,0E0,0E0,0E0,0E0,0E0,0E0,0E0,0E0,0E0,0E0,0E0,0E0,0E0,0E0,0E0,0E0],"parents":[2147483647,0,0,1,1,2,2,3,3,5,5,6,6,9,9,10,10,11,11,12,12,13,13,14,14,15,15,16,16,17,17,18,18,21,21,22,22,23,23,24,24,26,26,28,28,30,30,31,31,32,32],"right_children":[2,4,6,8,-1,10,12,-1,-1,14,16,18,20,22,24,26,28,30,32,-1,-1,34,36,38,40,-1,42,-1,44,-1,46,48,50,-1,-1,-1,-1,-1,-1,-1,-1,-1,-1,-1,-1,-1,-1,-1,-1,-1,-1],"split_conditions":[1.3993886E-1,8.945898E-1,5.8974874E-1,8.0155694E-1,3.0157928E0,5.282744E-1,3.3617723E-1,9.878943E0,2.5544868E0,6.005509E-1,3.7520516E-1,5.424013E-1,6.227604E-1,3.3984905E-1,6.292021E-1,3.7801903E-1,3.655991E-1,4.3703038E-1,3.9107567E-1,1.0419669E1,9.084994E-1,7.805313E-1,3.418996E-1,4.0970075E-1,4.7685906E-1,6.3663673E-1,6.501957E-1,1.7827E0,5.163244E-1,2.9628441E0,6.2047195E-1,6.960734E-1,6.663895E-1,1.9032499E0,2.857001E-1,2.3237045E0,5.6096044E0,-4.231325E-1,-2.2239046E0,2.5890586E0,3.6854647E-2,2.9083252E0,8.1499636E-1,2.2085418E-1,-1.7490128E0,7.858611E-1,-1.3343443E0,2.7240841E0,7.4511933E0,4.0685716E0,1.7444618E0],"split_indices":[5,3,0,0,0,4,2,0,0,1,1,1,0,1,1,2,2,1,5,0,0,3,0,0,3,0,6,0,1,0,0,3,4,0,0,0,0,0,0,0,0,0,0,0,0,0,0,0,0,0,0],"split_type":[0,0,0,0,0,0,0,0,0,0,0,0,0,0,0,0,0,0,0,0,0,0,0,0,0,0,0,0,0,0,0,0,0,0,0,0,0,0,0,0,0,0,0,0,0,0,0,0,0,0,0],"sum_hessian":[1.09E2,8E0,1.01E2,6E0,2E0,6E1,4.1E1,5E0,1E0,3.9E1,2.1E1,3.7E1,4E0,2.9E1,1E1,1E1,1.1E1,8E0,2.9E1,3E0,1E0,9E0,2E1,2E0,8E0,2E0,8E0,4E0,7E0,3E0,5E0,7E0,2.2E1,7E0,2E0,4E0,1.6E1,1E0,1E0,5E0,3E0,6E0,2E0,3E0,4E0,1E0,4E0,2E0,5E0,1.5E1,7E0],"tree_param":{"num_deleted":"0","num_feature":"7","num_nodes":"51","size_leaf_vector":"0"}},{"base_weights":[7.548078E0,1.6868805E1,6.6516604E0,6.53301E0,1.8888601E1,5.012985E0,8.697801E0,2.0379208E1,4.9724846E0,1.0034462E0,6.357068E0,1.9961464E1,6.7419086E0,2.4108156E1,8.614207E0,4.367753E0,-2.098543E0,5.1160526E0,1.0064916E1,7.16543E0,3.036902E1,1.6782393E0,7.797141E0,2.2946422E0,5.8672037E0,1.1629658E0,-4.940343E0,3.6170824E0,9.722942E0,1.23181305E1,7.013696E-1,-1.5360432E0,7.5473914E0,5.0925274E0,1.0910749E1,6.891735E0,1.3968048E0,-6.2140656E-1,1.7644105E0,-6.7103953E0,1.0699329E0,5.0580673E0,-2.5095415E0,-9.571743E-1,1.1385412E1,5.3820696E0,1.7908674E1,1.5174198E-1,9.003124E-1,7.6406986E-1,-2.8771172E0,6.1129184E0,1.8628597E0,4.6494274E0,1.8484274E1],"categories":[],"categories_nodes":[],"categories_segments":[],"categories_sizes":[],"default_left":[true,true,true,false,true,true,true,true,false,true,true,true,true,false,false,true,true,true,true,false,false,true,true,false,true,true,true,true,true,true,true,true,false,true,true,false,false,false,false,false,false,false,false,false,false,false,false,false,false,false,false,false,false,false,false],"id":6,"left_children":[1,3,5,-1,7,9,11,13,-1,15,17,19,21,-1,-1,23,25,27,29,-1,-1,31,33,-1,35,37,39,41,43,45,47,49,-1,51,53,-1,-1,-1,-1,-1,-1,-1,-1,-1,-1,-1,-1,-1,-1,-1,-1,-1,-1,-1,-1],"loss_changes":[8.06874E2,6.448633E1,2.983994E2,0E0,4.3868652E1,3.1158093E2,8.347639E2,5.5553955E1,0E0,1.7614261E2,1.5097327E2,5.8144556E2,1.9530505E2,0E0,0E0,1.140509E1,8.916245E1,2.0652692E2,2.0234125E2,0E0,0E0,1.62514E2,2.1391223E2,0E0,8.693848E0,6.462423E0,6.0372185E1,2.598879E2,1.529408E2,2.1382507E2,1.9141817E-1,2.070605E1,0E0,5.1227448E1,5.7794275E2,0E0,0E0,0E0,0E0,0E0,0E0,0E0,0E0,0E0,0E0,0E0,0E0,0E0,0E0,0E0,0E0,0E0,0E0,0E0,0E0],"parents":[2147483647,0,0,1,1,2,2,4,4,5,5,6,6,7,7,9,9,10,10,11,11,12,12,15,15,16,16,17,17,18,18,21,21,22,22,24,24,25,25,26,26,27,27,28,28,29,29,30,30,31,31,33,33,34,34],"right_children":[2,4,6,-1,8,10,12,14,-1,16,18,20,22,-1,-1,24,26,28,30,-1,-1,32,34,-1,36,38,40,42,44,46,48,50,-1,52,54,-1,-1,-1,-1,-1,-1,-1,-1,-1,-1,-1,-1,-1,-1,-1,-1,-1,-1,-1,-1],"split_conditions":[1.3993886E-1,6.149522E-1,5.599992E-1,2.2865534E0,8.945898E-1,5.9478456E-1,5.724213E-1,7.6413774E-1,1.7403696E0,4.0084976E-1,4.7564209E-1,5.348059E-1,1.6083546E-1,8.437855E0,3.0149724E0,4.6639925E-1,4.2771176E-1,8.926507E-1,5.784551E-1,2.5079005E0,1.0629157E1,7.532431E-1,7.163839E-1,8.031248E-1,4.7987822E-1,5.3328633E-1,6.2414145E-1,8.4678113E-1,1.757297E-2,4.168918E-1,5.53916E-1,6.0573244E-1,2.641587E0,7.661115E-1,6.617353E-1,2.4121072E0,4.8888168E-1,-2.174923E-1,6.1754364E-1,-2.3486383E0,3.7447652E-1,1.7703235E0,-8.783395E-1,-3.35011E-1,3.9848943E0,1.8837243E0,6.268036E0,5.3109694E-2,3.1510934E-1,2.6742443E-1,-1.006991E0,2.1395214E0,6.520009E-1,1.6272995E0,6.469496E0],"split_indices":[5,0,6,0,3,5,6,0,0,1,6,3,5,0,0,6,2,5,3,0,0,0,3,0,0,0,1,5,3,3,0,0,0,0,6,0,0,0,0,0,0,0,0,0,0,0,0,0,0,0,0,0,0,0,0],"split_type":[0,0,0,0,0,0,0,0,0,0,0,0,0,0,0,0,0,0,0,0,0,0,0,0,0,0,0,0,0,0,0,0,0,0,0,0,0,0,0,0,0,0,0,0,0,0,0,0,0,0,0,0,0,0,0],"sum_hessian":[1.09E2,8E0,1.01E2,2E0,6E0,5.8E1,4.3E1,5E0,1E0,1.5E1,4.3E1,5E0,3.8E1,3E0,2E0,7E0,8E0,3.4E1,9E0,3E0,2E0,7E0,3.1E1,4E0,3E0,4E0,4E0,2.7E1,7E0,7E0,2E0,5E0,2E0,1.8E1,1.3E1,2E0,1E0,1E0,3E0,3E0,1E0,2.2E1,5E0,1E0,6E0,4E0,3E0,1E0,1E0,2E0,3E0,1.3E1,5E0,8E0,5E0],"tree_param":{"num_deleted":"0","num_feature":"7","num_nodes":"55","size_leaf_vector":"0"}},{"base_weights":[5.420787E0,1.2684693E1,4.726709E0,5.0086417E0,1.4162332E1,3.5270195E0,6.356574E0,1.5155287E1,4.1022987E0,5.126896E0,1.3224753E0,5.2648873E0,1.3382078E1,1.7779762E1,6.6042237E0,3.0279136E0,9.431229E0,3.4203978E0,-2.5860324E0,5.2103657E-1,6.512546E0,1.6063692E1,1.3278122E0,6.076969E-1,3.4599693E0,1.2111088E1,1.7137012E0,5.980211E0,1.9611655E-1,1.970089E0,-4.820097E0,3.5560012E0,-1.5891126E0,7.588332E0,9.446805E-1,1.4177022E0,-1.3161621E0,4.121084E0,1.1203352E0,7.9452147E0,2.06361E1,4.263153E-1,2.0007248E0,1.1185207E0,7.9040036E0,-2.3461204E0,2.6991303E0,1.6401482E-1,2.517442E0,-5.990461E0,-1.2627913E0,9.1052437E-1,-2.2711449E0,2.730491E0,8.666268E0,-1.454382E0,1.7153695E0],"categories":[],"categories_nodes":[],"categories_segments":[],"categories_sizes":[],"default_left":[true,true,true,false,true,true,true,true,false,true,true,true,true,false,false,true,true,true,true,true,true,false,false,true,true,true,true,true,true,true,true,false,true,true,true,false,false,false,false,false,false,false,false,false,false,false,false,false,false,false,false,false,false,false,false,false,false],"id":7,"left_children":[1,3,5,-1,7,9,11,13,-1,15,17,19,21,-1,-1,23,25,27,29,31,33,-1,-1,35,37,39,41,43,45,47,49,-1,51,53,55,-1,-1,-1,-1,-1,-1,-1,-1,-1,-1,-1,-1,-1,-1,-1,-1,-1,-1,-1,-1,-1,-1],"loss_changes":[4.9463208E2,3.1147827E1,1.7702417E2,0E0,7.7526855E0,2.083667E2,2.5167017E2,1.7230713E1,0E0,2.8765814E2,2.302384E2,2.215177E2,1.402948E2,0E0,0E0,2.4039108E1,2.067461E2,1.473912E2,1.1128272E2,6.328894E1,1.7252637E2,0E0,0E0,9.657606E0,2.7865112E1,1.2015466E2,6.251011E-1,8.468808E1,6.3601772E1,3.5413446E0,2.157869E1,0E0,1.2296931E1,1.072478E2,1.3588387E1,0E0,0E0,0E0,0E0,0E0,0E0,0E0,0E0,0E0,0E0,0E0,0E0,0E0,0E0,0E0,0E0,0E0,0E0,0E0,0E0,0E0,0E0],"parents":[2147483647,0,0,1,1,2,2,4,4,5,5,6,6,7,7,9,9,10,10,11,11,12,12,15,15,16,16,17,17,18,18,19,19,20,20,23,23,24,24,25,25,26,26,27,27,28,28,29,29,30,30,32,32,33,33,34,34],"right_children":[2,4,6,-1,8,10,12,14,-1,16,18,20,22,-1,-1,24,26,28,30,32,34,-1,-1,36,38,40,42,44,46,48,50,-1,52,54,56,-1,-1,-1,-1,-1,-1,-1,-1,-1,-1,-1,-1,-1,-1,-1,-1,-1,-1,-1,-1,-1,-1],"split_conditions":[1.3993886E-1,6.149522E-1,5.8974874E-1,1.7530246E0,8.945898E-1,4.8837733E-1,3.3617723E-1,7.6413774E-1,1.4358045E0,3.848687E-1,4.9216175E-1,5.424013E-1,6.227604E-1,6.2229166E0,2.3114784E0,3.716585E-1,5.0713545E-1,8.0481666E-1,4.4442755E-1,4.3703038E-1,8.093101E-1,5.622292E0,4.6473426E-1,4.0959004E-1,6.04035E-1,6.899066E-1,5.34964E-1,3.6998546E-1,6.3634706E-1,3.2384717E-1,5.684273E-1,1.2446004E0,6.2047195E-1,4.6616822E-1,8.241458E-1,4.9619576E-1,-4.6065673E-1,1.4423795E0,3.9211732E-1,2.7808251E0,7.2226353E0,1.4921035E-1,7.0025367E-1,3.9148226E-1,2.7664013E0,-8.2114214E-1,9.446956E-1,5.7405185E-2,8.811047E-1,-2.0966613E0,-4.4197693E-1,3.1868353E-1,-7.949007E-1,9.556718E-1,3.0331938E0,-5.090337E-1,6.003793E-1],"split_indices":[5,0,0,0,3,1,2,0,0,1,3,1,0,0,0,3,0,5,0,1,1,0,0,0,4,3,0,2,1,0,4,0,0,6,1,0,0,0,0,0,0,0,0,0,0,0,0,0,0,0,0,0,0,0,0,0,0],"split_type":[0,0,0,0,0,0,0,0,0,0,0,0,0,0,0,0,0,0,0,0,0,0,0,0,0,0,0,0,0,0,0,0,0,0,0,0,0,0,0,0,0,0,0,0,0,0,0,0,0,0,0,0,0,0,0,0,0],"sum_hessian":[1.09E2,8E0,1.01E2,2E0,6E0,6E1,4.1E1,5E0,1E0,3.4E1,2.6E1,3.7E1,4E0,3E0,2E0,2.4E1,1E1,1.7E1,9E0,8E0,2.9E1,3E0,1E0,4E0,2E1,7E0,3E0,9E0,8E0,3E0,6E0,3E0,5E0,2.4E1,5E0,3E0,1E0,1.5E1,5E0,6E0,1E0,1E0,2E0,3E0,6E0,4E0,4E0,1E0,2E0,4E0,2E0,1E0,4E0,5E0,1.9E1,1E0,4E0],"tree_param":{"num_deleted":"0","num_feature":"7","num_nodes":"57","size_leaf_vector":"0"}},{"base_weights":[3.8604484E0,9.547632E0,3.3207905E0,5.297325E0,1.1888413E1,2.030625E0,4.087232E0,1.4750783E1,5.0632386E0,1.0771542E0,5.7098646E0,6.4535203E0,3.0724404E0,1.6339184E0,-1.7006044E0,6.737885E0,-7.4313927E-1,9.235001E0,7.633367E-1,-1.7204767E0,3.6989052E0,-1.6052094E-1,3.4398234E0,1.2481275E0,-5.0653787E0,-3.790989E-1,7.987232E0,5.433935E0,1.5478647E1,2.8487015E0,-6.405495E-1,4.7967434E-1,-4.080519E0,2.4595284E0,5.68319E0,-1.3053166E0,3.7443352E-1,4.7655663E0,8.779049E-1,1.521918E-1,2.2679672E0,8.707393E0,2.1932144E0,9.185792E0,-1.5523338E0,2.62043E0,1.8891243E1,-9.765425E-1,3.5171127E-1,1.8820496E0,-6.1513394E-1,5.7558684E0,1.0180161E0,8.387653E0,1.3941389E0],"categories":[],"categories_nodes":[],"categories_segments":[],"categories_sizes":[],"default_left":[true,true,true,false,true,true,true,false,false,true,true,true,true,true,true,true,false,true,true,true,true,true,true,true,false,false,true,true,true,false,true,true,false,true,true,false,false,false,false,false,false,false,false,false,false,false,false,false,false,false,false,false,false,false,false],"id":8,"left_children":[1,3,5,-1,7,9,11,-1,-1,13,15,17,19,21,23,25,-1,27,29,31,33,35,37,39,-1,-1,41,43,45,-1,47,49,-1,51,53,-1,-1,-1,-1,-1,-1,-1,-1,-1,-1,-1,-1,-1,-1,-1,-1,-1,-1,-1,-1],"loss_changes":[3.0589905E2,2.6564575E1,9.2561646E1,0E0,2.299414E1,1.3417151E2,1.3145312E2,0E0,0E0,5.3815014E1,5.807776E1,2.77839E2,1.4448322E2,9.1288605E1,6.585314E1,6.526904E1,0E0,2.0068005E2,2.2318037E1,3.3112022E1,8.685242E1,9.674957E0,4.3366516E1,4.125549E0,0E0,0E0,5.938568E0,2.5016275E2,1.2601642E2,0E0,2.0104244E0,7.29904E0,0E0,1.2243674E2,1.6230014E2,0E0,0E0,0E0,0E0,0E0,0E0,0E0,0E0,0E0,0E0,0E0,0E0,0E0,0E0,0E0,0E0,0E0,0E0,0E0,0E0],"parents":[2147483647,0,0,1,1,2,2,4,4,5,5,6,6,9,9,10,10,11,11,12,12,13,13,14,14,15,15,17,17,18,18,19,19,20,20,21,21,22,22,23,23,26,26,27,27,28,28,30,30,31,31,33,33,34,34],"right_children":[2,4,6,-1,8,10,12,-1,-1,14,16,18,20,22,24,26,-1,28,30,32,34,36,38,40,-1,-1,42,44,46,-1,48,50,-1,52,54,-1,-1,-1,-1,-1,-1,-1,-1,-1,-1,-1,-1,-1,-1,-1,-1,-1,-1,-1,-1],"split_conditions":[1.3993886E-1,7.029171E-1,4.6845427E-1,1.8540637E0,7.6413774E-1,8.926507E-1,5.19944E-1,5.162774E0,1.7721335E0,8.4678113E-1,9.6141034E-1,6.780153E-1,5.591339E-1,7.022046E-1,4.2100123E-1,1.757297E-2,-2.6009873E-1,5.011423E-1,3.4802556E-1,5.380795E-1,6.1825335E-1,3.5321122E-1,5.361772E-1,3.374054E-1,-1.7728825E0,-1.326846E-1,9.4371426E-1,5.827149E-1,2.9190296E-1,9.970455E-1,7.4224424E-1,5.586735E-1,-1.4281816E0,6.04035E-1,7.4180996E-1,-4.5686078E-1,1.3105173E-1,1.6679482E0,3.072667E-1,5.326713E-2,7.937885E-1,3.0475874E0,7.6762503E-1,3.215027E0,-5.4331684E-1,9.171505E-1,6.611935E0,-3.4178987E-1,1.2309895E-1,6.5871733E-1,-2.1529688E-1,2.014554E0,3.5630563E-1,2.9356787E0,4.8794863E-1],"split_indices":[5,0,6,0,0,5,4,0,0,5,1,5,4,5,0,3,0,4,3,4,1,3,0,0,0,0,5,3,1,0,5,0,0,4,1,0,0,0,0,0,0,0,0,0,0,0,0,0,0,0,0,0,0,0,0],"split_type":[0,0,0,0,0,0,0,0,0,0,0,0,0,0,0,0,0,0,0,0,0,0,0,0,0,0,0,0,0,0,0,0,0,0,0,0,0,0,0,0,0,0,0,0,0,0,0,0,0,0,0,0,0,0,0],"sum_hessian":[1.09E2,8E0,1.01E2,4E0,4E0,3.9E1,6.2E1,2E0,2E0,3.2E1,7E0,1.7E1,4.5E1,2.7E1,5E0,6E0,1E0,1.1E1,6E0,5E0,4E1,1.4E1,1.3E1,3E0,2E0,1E0,5E0,8E0,3E0,2E0,4E0,3E0,2E0,2.6E1,1.4E1,4E0,1E1,8E0,5E0,2E0,1E0,4E0,1E0,5E0,3E0,1E0,2E0,3E0,1E0,1E0,2E0,7E0,1.9E1,8E0,6E0],"tree_param":{"num_deleted":"0","num_feature":"7","num_nodes":"55","size_leaf_vector":"0"}},{"base_weights":[2.770417E0,7.182511E0,2.3539538E0,3.814073E0,9.114447E0,1.6432277E0,3.2534738E0,1.1308929E1,3.8818142E0,2.3395257E0,-7.2758146E-2,9.166196E0,2.2604017E0,1.4711567E0,4.9711914E0,6.8953234E-1,-1.7122612E0,1.95508E0,1.5725619E1,-4.9034238E-1,2.8774502E0,5.936324E-1,4.139216E0,2.849349E0,8.972374E0,-2.3807831E-1,2.836176E0,-2.8255863E0,3.4292603E-1,-1.0035324E-1,2.6736755E0,1.5526924E0,-1.0040177E0,1.871643E-1,3.4910867E0,9.497815E-1,-2.4534378E0,5.3417773E0,3.5435486E-1,3.8695602E0,8.6174774E-1,-2.3193073E0,2.5087017E-1,3.4147568E0,5.502167E-1,-4.2510796E-1,-3.4840431E0,7.0283127E-1,-1.8844223E-1,5.383733E-1,-1.7286488E0,-1.0487493E0,3.801323E0,1.6917002E0,5.7910047E0],"categories":[],"categories_nodes":[],"categories_segments":[],"categories_sizes":[],"default_left":[true,true,true,false,true,true,true,false,false,true,true,true,true,true,true,true,true,true,false,true,true,true,true,true,false,true,true,true,true,false,false,false,true,true,true,false,false,false,false,false,false,false,false,false,false,false,false,false,false,false,false,false,false,false,false],"id":9,"left_children":[1,3,5,-1,7,9,11,-1,-1,13,15,17,19,21,23,25,27,29,-1,31,33,35,37,39,-1,41,43,45,47,-1,-1,-1,49,51,53,-1,-1,-1,-1,-1,-1,-1,-1,-1,-1,-1,-1,-1,-1,-1,-1,-1,-1,-1,-1],"loss_changes":[1.8521497E2,2.3805298E1,5.9863647E1,0E0,1.3515442E1,7.066565E1,2.3763812E2,0E0,0E0,8.8667404E1,2.3676657E1,2.530597E2,6.7607285E1,7.480528E1,5.9333374E1,2.6561476E1,1.4697517E1,6.1764135E0,0E0,9.954583E0,5.217404E1,3.0545723E1,3.451935E1,1.2887604E1,0E0,1.0757983E1,3.4115944E0,4.8413506E0,7.061697E-1,0E0,0E0,0E0,8.754309E0,3.525415E1,9.7802826E1,0E0,0E0,0E0,0E0,0E0,0E0,0E0,0E0,0E0,0E0,0E0,0E0,0E0,0E0,0E0,0E0,0E0,0E0,0E0,0E0],"parents":[2147483647,0,0,1,1,2,2,4,4,5,5,6,6,9,9,10,10,11,11,12,12,13,13,14,14,15,15,16,16,17,17,19,19,20,20,21,21,22,22,23,23,25,25,26,26,27,27,28,28,32,32,33,33,34,34],"right_children":[2,4,6,-1,8,10,12,-1,-1,14,16,18,20,22,24,26,28,30,-1,32,34,36,38,40,-1,42,44,46,48,-1,-1,-1,50,52,54,-1,-1,-1,-1,-1,-1,-1,-1,-1,-1,-1,-1,-1,-1,-1,-1,-1,-1,-1,-1],"split_conditions":[1.3993886E-1,7.029171E-1,5.599992E-1,1.3349255E0,7.6413774E-1,5.2342534E-1,5.724213E-1,3.9581254E0,1.358635E0,4.2298186E-1,4.8376074E-1,5.348059E-1,6.4318097E-1,8.926507E-1,4.8084253E-1,4.6639925E-1,5.1461345E-1,4.8820907E-1,5.503967E0,5.251591E-1,1.6083546E-1,8.672029E-1,8.660414E-1,3.6811888E-1,3.1403308E0,5.5574644E-1,5.9239763E-1,4.372155E-1,5.8078873E-1,-3.5123635E-2,9.357864E-1,5.434423E-1,3.4589565E-1,6.628612E-1,7.163839E-1,3.324235E-1,-8.587032E-1,1.869622E0,1.240242E-1,1.354346E0,3.016117E-1,-8.1175756E-1,8.7804556E-2,1.1951648E0,1.9257583E-1,-1.4878778E-1,-1.2194151E0,2.4599095E-1,-6.595478E-2,1.8843065E-1,-6.050271E-1,-3.6706227E-1,1.330463E0,5.920951E-1,2.0268517E0],"split_indices":[5,0,6,0,0,3,6,0,0,3,6,3,6,5,6,6,0,4,0,4,5,5,1,4,0,3,0,0,0,0,0,0,2,1,3,0,0,0,0,0,0,0,0,0,0,0,0,0,0,0,0,0,0,0,0],"split_type":[0,0,0,0,0,0,0,0,0,0,0,0,0,0,0,0,0,0,0,0,0,0,0,0,0,0,0,0,0,0,0,0,0,0,0,0,0,0,0,0,0,0,0,0,0,0,0,0,0,0,0,0,0,0,0],"sum_hessian":[1.09E2,8E0,1.01E2,4E0,4E0,5.8E1,4.3E1,2E0,2E0,4.1E1,1.7E1,5E0,3.8E1,3.2E1,9E0,1.2E1,5E0,3E0,2E0,7E0,3.1E1,2.5E1,7E0,7E0,2E0,9E0,3E0,3E0,2E0,1E0,2E0,1E0,6E0,6E0,2.5E1,2.3E1,2E0,5E0,2E0,4E0,3E0,1E0,8E0,2E0,1E0,1E0,2E0,1E0,1E0,2E0,4E0,5E0,1E0,1.5E1,1E1],"tree_param":{"num_deleted":"0","num_feature":"7","num_nodes":"55","size_leaf_vector":"0"}},{"base_weights":[2.0053606E0,5.407706E0,1.6854932E0,2.746132E0,6.9877386E0,2.418223E0,1.110483E0,7.838333E0,1.7926807E0,1.8426327E0,7.7134666E0,1.8156214E0,-2.5193968E-1,3.996605E-1,3.0706694E0,9.0379333E-1,9.682094E0,1.2517195E0,8.165204E0,1.4741445E0,-1.2202778E0,-1.9256592E0,9.2328507E-1,7.031775E0,1.7997696E0,3.789015E0,7.3686033E-1,1.0966835E1,1.2809715E0,2.8717246E0,-6.4136696E-1,-1.622667E0,7.960383E-1,-8.2790375E-2,-2.512352E0,1.8131973E0,-1.5751435E0,7.8004513E0,1.9785347E0,3.1578276E0,-7.854396E-1,7.051182E-1,5.154684E0,-7.4119264E-1,1.3474547E0,-1.05392456E-1,3.642352E0,-1.8382568E0,3.703486E-1,-2.8391738E0,-6.595168E-1],"categories":[],"categories_nodes":[],"categories_segments":[],"categories_sizes":[],"default_left":[true,true,true,false,true,true,true,false,false,true,true,true,true,true,true,false,false,true,true,true,true,true,true,true,true,true,true,false,false,true,true,true,false,false,false,false,false,false,false,false,false,false,false,false,false,false,false,false,false,false,false],"id":10,"left_children":[1,3,5,-1,7,9,11,-1,-1,13,15,17,19,21,23,-1,-1,25,27,29,31,33,35,37,39,41,43,-1,-1,45,47,49,-1,-1,-1,-1,-1,-1,-1,-1,-1,-1,-1,-1,-1,-1,-1,-1,-1,-1,-1],"loss_changes":[1.105983E2,1.8659119E1,4.0289978E1,0E0,8.042801E0,1.1989407E2,5.713852E1,0E0,0E0,7.1425705E1,4.4872223E1,1.2942058E2,3.6898956E1,2.6129824E1,9.809613E1,0E0,0E0,4.554297E1,4.381302E1,2.5494602E1,1.2650518E1,4.1167927E0,4.0653538E1,3.9880524E0,6.567583E1,2.1634834E1,2.9878426E1,0E0,0E0,1.1855118E1,5.5244446E0,1.2187662E1,0E0,0E0,0E0,0E0,0E0,0E0,0E0,0E0,0E0,0E0,0E0,0E0,0E0,0E0,0E0,0E0,0E0,0E0,0E0],"parents":[2147483647,0,0,1,1,2,2,4,4,5,5,6,6,9,9,10,10,11,11,12,12,13,13,14,14,17,17,18,18,19,19,20,20,21,21,22,22,23,23,24,24,25,25,26,26,29,29,30,30,31,31],"right_children":[2,4,6,-1,8,10,12,-1,-1,14,16,18,20,22,24,-1,-1,26,28,30,32,34,36,38,40,42,44,-1,-1,46,48,50,-1,-1,-1,-1,-1,-1,-1,-1,-1,-1,-1,-1,-1,-1,-1,-1,-1,-1,-1],"split_conditions":[1.3993886E-1,7.029171E-1,3.5500985E-1,9.611462E-1,8.0155694E-1,3.3639959E-1,5.2500576E-1,2.7434165E0,6.2743825E-1,6.872304E-1,5.9467316E-1,8.1273377E-1,3.448931E-1,5.533992E-1,3.9107567E-1,3.1632766E-1,3.3887327E0,2.8367138E-1,5.105743E-1,6.501957E-1,6.8162835E-1,6.5456814E-1,8.129044E-1,7.610226E-1,6.663895E-1,2.0369926E-1,3.7903482E-1,3.8383923E0,4.4834003E-1,1.074112E-1,5.469395E-1,2.8054196E-1,2.7861342E-1,-2.897663E-2,-8.793232E-1,6.3461906E-1,-5.513002E-1,2.7301579E0,6.924871E-1,1.1052396E0,-2.7490386E-1,2.4679136E-1,1.8041394E0,-2.594174E-1,4.7160912E-1,-3.688736E-2,1.2748232E0,-6.433899E-1,1.2962201E-1,-9.937108E-1,-2.3083088E-1],"split_indices":[5,0,2,0,0,2,4,0,0,1,0,3,1,4,5,0,0,3,0,6,6,0,6,1,4,6,3,0,0,1,0,5,0,0,0,0,0,0,0,0,0,0,0,0,0,0,0,0,0,0,0],"split_type":[0,0,0,0,0,0,0,0,0,0,0,0,0,0,0,0,0,0,0,0,0,0,0,0,0,0,0,0,0,0,0,0,0,0,0,0,0,0,0,0,0,0,0,0,0,0,0,0,0,0,0],"sum_hessian":[1.09E2,8E0,1.01E2,4E0,4E0,4.3E1,5.8E1,3E0,1E0,4E1,3E0,3.8E1,2E1,1.9E1,2.1E1,1E0,2E0,3.6E1,2E0,7E0,1.3E1,3E0,1.6E1,4E0,1.7E1,5E0,3.1E1,1E0,1E0,4E0,3E0,1.1E1,2E0,1E0,2E0,1.2E1,4E0,3E0,1E0,1.1E1,6E0,2E0,3E0,9E0,2.2E1,1E0,3E0,1E0,2E0,4E0,7E0],"tree_param":{"num_deleted":"0","num_feature":"7","num_nodes":"51","size_leaf_vector":"0"}},{"base_weights":[1.4652395E0,2.715835E0,9.1735625E-1,1.6456045E0,7.2576046E0,1.1433918E0,-1.2033792E0,2.6171535E-1,3.76055E0,1.0335239E1,7.3489E-1,1.4654974E0,-2.7271637E-1,-2.593689E-1,-1.4748211E0,-1.5260909E0,1.8445694E0,2.1625423E0,6.016428E0,1.0568008E0,4.5534134E-2,6.3402414E-1,2.537681E0,-7.711149E-1,1.1660585E0,-4.8596382E-1,9.691048E-2,1.7416153E0,-2.152256E0,-8.193283E-1,2.2315946E0,5.099869E-1,2.3257663E0,6.841227E0,1.7710152E0,-2.0113804E0,1.1594864E0,4.0339384E0,8.462178E-1,-1.6582325E0,-2.7300153E-2,-2.735405E-1,-2.3815668E0,2.5473208E0,7.5103503E-1,2.4940033E0,6.581726E-1,-3.020026E0,-7.5205135E-1,1.8234918E0,-2.8447324E-1,-6.0539246E-3,4.7690325E0,3.2651978E0,3.7253633E-1,-4.8627472E-1,-1.8296533E0,-9.2844963E-1,2.7763304E-1],"categories":[],"categories_nodes":[],"categories_segments":[],"categories_sizes":[],"default_left":[true,true,true,true,true,true,true,true,true,false,true,true,true,true,false,true,true,true,true,false,false,true,true,true,false,false,false,false,true,false,true,false,true,false,false,true,true,true,true,true,true,false,false,false,false,false,false,false,false,false,false,false,false,false,false,false,false,false,false],"id":11,"left_children":[1,3,5,7,9,11,13,15,17,-1,19,21,23,25,-1,27,29,31,33,-1,-1,35,37,39,-1,-1,-1,-1,41,-1,43,-1,45,-1,-1,47,49,51,53,55,57,-1,-1,-1,-1,-1,-1,-1,-1,-1,-1,-1,-1,-1,-1,-1,-1,-1,-1],"loss_changes":[7.287843E1,1.4846129E2,3.8766144E1,8.0967606E1,1.1285193E2,3.2785347E1,1.667429E0,5.3752033E1,2.664325E1,0E0,6.1761284E-1,5.009758E1,1.0938332E1,2.8928825E-1,0E0,2.2163517E1,1.2138359E1,9.717827E-1,1.8905334E0,0E0,0E0,4.959421E1,5.9858E1,7.2130933E0,0E0,0E0,0E0,0E0,2.7950249E0,0E0,2.2939377E0,0E0,3.2237244E-1,0E0,0E0,5.350086E0,2.8323849E1,3.8635956E1,1.3679332E1,1.14774704E-1,2.1813009E0,0E0,0E0,0E0,0E0,0E0,0E0,0E0,0E0,0E0,0E0,0E0,0E0,0E0,0E0,0E0,0E0,0E0,0E0],"parents":[2147483647,0,0,1,1,2,2,3,3,4,4,5,5,6,6,7,7,8,8,10,10,11,11,12,12,13,13,15,15,16,16,17,17,18,18,21,21,22,22,23,23,28,28,30,30,32,32,35,35,36,36,37,37,38,38,39,39,40,40],"right_children":[2,4,6,8,10,12,14,16,18,-1,20,22,24,26,-1,28,30,32,34,-1,-1,36,38,40,-1,-1,-1,-1,42,-1,44,-1,46,-1,-1,48,50,52,54,56,58,-1,-1,-1,-1,-1,-1,-1,-1,-1,-1,-1,-1,-1,-1,-1,-1,-1,-1],"split_conditions":[3.279193E-1,2.8838646E-1,7.4911004E-1,7.0485604E-1,8.6672837E-1,6.663895E-1,7.816579E-1,8.438836E-1,8.0403256E-1,3.6173337E0,5.8935666E-1,5.3363776E-1,7.7820694E-1,2.8480488E-1,-5.1618737E-1,3.5753202E-1,4.620978E-1,6.135816E-1,7.688026E-1,3.698803E-1,1.5936946E-2,4.3976134E-1,6.825574E-1,2.2822735E-1,4.0812048E-1,-1.7008734E-1,3.3918668E-2,6.095653E-1,7.029638E-1,-2.867649E-1,9.167886E-1,1.784954E-1,8.575907E-1,2.3944294E0,6.198553E-1,7.1393037E-1,4.9270207E-1,4.835336E-1,6.587487E-2,7.340188E-1,1.5803605E-1,-9.573917E-2,-8.3354837E-1,8.915623E-1,2.6286227E-1,8.7290114E-1,2.303604E-1,-1.0570091E0,-2.6321796E-1,6.382221E-1,-9.956563E-2,-2.1188736E-3,1.6691613E0,1.1428192E0,1.3038771E-1,-1.7019615E-1,-6.4037865E-1,-3.2495737E-1,9.717156E-2],"split_indices":[5,5,3,4,3,4,3,3,3,0,0,0,4,0,0,0,0,0,0,0,0,2,5,2,0,0,0,0,3,0,3,0,0,0,0,1,4,6,3,4,3,0,0,0,0,0,0,0,0,0,0,0,0,0,0,0,0,0,0],"split_type":[0,0,0,0,0,0,0,0,0,0,0,0,0,0,0,0,0,0,0,0,0,0,0,0,0,0,0,0,0,0,0,0,0,0,0,0,0,0,0,0,0,0,0,0,0,0,0,0,0,0,0,0,0,0,0,0,0,0,0],"sum_hessian":[1.09E2,3.2E1,7.7E1,2.7E1,5E0,7E1,7E0,1.7E1,1E1,3E0,2E0,5.7E1,1.3E1,2E0,5E0,8E0,9E0,7E0,3E0,1E0,1E0,3.3E1,2.4E1,1E1,3E0,1E0,1E0,1E0,7E0,1E0,8E0,1E0,6E0,2E0,1E0,5E0,2.8E1,1.2E1,1.2E1,4E0,6E0,1E0,6E0,6E0,2E0,5E0,1E0,2E0,3E0,1.9E1,9E0,2E0,1E1,1E0,1.1E1,1E0,3E0,1E0,5E0],"tree_param":{"num_deleted":"0","num_feature":"7","num_nodes":"59","size_leaf_vector":"0"}},{"base_weights":[1.040799E0,2.033388E0,6.0751396E-1,1.2426431E0,5.3846326E0,4.6218145E-1,2.6369324E0,2.0055665E-1,2.8349078E0,7.6222363E0,6.0628384E-1,6.1360234E-1,-8.637414E-1,4.382685E0,1.2201945E-2,-1.0274832E0,1.2857368E0,1.5658727E0,4.6642513E0,8.718605E-1,3.756523E-2,9.82234E-2,1.2089385E0,-1.1222283E0,-3.246975E-1,4.3208694E-1,-4.1378403E-1,1.4368324E0,-1.5151267E0,-3.274231E-1,1.7299547E0,4.2074013E-1,1.6693573E0,-5.896548E-1,5.4256904E-1,2.6978135E0,3.7148303E-1,-4.8623022E-1,7.995033E-2,-7.106495E-1,-2.1419415E0,-6.759453E-1,1.8481064E-1,2.01871E0,5.7579297E-1,-1.4736496E0,-1.34234E-1,2.191591E0,-1.6835582E-1,7.206105E-1,4.9263353E0,9.121952E-2,2.9883766E0],"categories":[],"categories_nodes":[],"categories_segments":[],"categories_sizes":[],"default_left":[true,true,true,true,true,true,true,true,true,false,true,true,true,false,true,true,true,true,false,false,false,true,true,false,true,false,false,false,true,true,true,false,false,true,true,true,true,false,false,false,false,false,false,false,false,false,false,false,false,false,false,false,false],"id":12,"left_children":[1,3,5,7,9,11,13,15,17,-1,19,21,23,-1,25,27,29,31,-1,-1,-1,33,35,-1,37,-1,-1,-1,39,41,43,-1,-1,45,47,49,51,-1,-1,-1,-1,-1,-1,-1,-1,-1,-1,-1,-1,-1,-1,-1,-1],"loss_changes":[4.6072823E1,8.075815E1,2.178662E1,4.5891216E1,5.953105E1,1.5387155E1,2.2857174E1,2.5308674E1,1.8232895E1,0E0,4.2036355E-1,2.0438444E1,7.5030136E-1,0E0,7.1538603E-1,1.2992352E1,7.7323704E0,2.4566269E-1,0E0,0E0,0E0,1.1629189E1,3.7650677E1,0E0,3.0032972E-1,0E0,0E0,0E0,2.5118961E0,6.6049635E-1,1.5038013E0,0E0,0E0,5.8410296E0,2.7332573E1,4.4918663E1,1.5129218E1,0E0,0E0,0E0,0E0,0E0,0E0,0E0,0E0,0E0,0E0,0E0,0E0,0E0,0E0,0E0,0E0],"parents":[2147483647,0,0,1,1,2,2,3,3,4,4,5,5,6,6,7,7,8,8,10,10,11,11,12,12,14,14,15,15,16,16,17,17,21,21,22,22,24,24,28,28,29,29,30,30,33,33,34,34,35,35,36,36],"right_children":[2,4,6,8,10,12,14,16,18,-1,20,22,24,-1,26,28,30,32,-1,-1,-1,34,36,-1,38,-1,-1,-1,40,42,44,-1,-1,46,48,50,52,-1,-1,-1,-1,-1,-1,-1,-1,-1,-1,-1,-1,-1,-1,-1,-1],"split_conditions":[3.279193E-1,2.8838646E-1,9.1079104E-1,7.0485604E-1,8.6672837E-1,7.4911004E-1,9.4371426E-1,8.438836E-1,8.0403256E-1,2.6677825E0,5.8935666E-1,4.7564209E-1,5.313542E-1,1.5339398E0,4.4032043E-1,3.5753202E-1,5.915042E-1,6.135816E-1,1.6324879E0,3.0515116E-1,1.3147831E-2,7.053063E-1,5.274079E-1,-3.927799E-1,4.7990507E-1,1.5123042E-1,-1.448244E-1,5.0289136E-1,3.7033615E-1,5.169569E-1,9.167886E-1,1.4725904E-1,5.8427507E-1,3.3620483E-1,7.83085E-1,5.7491994E-1,6.864232E-1,-1.7018057E-1,2.7982617E-2,-2.4872732E-1,-7.496795E-1,-2.3658085E-1,6.468372E-2,7.0654845E-1,2.0152754E-1,-5.1577735E-1,-4.6981897E-2,7.670568E-1,-5.8924537E-2,2.5221366E-1,1.7242173E0,3.1926833E-2,1.0459318E0],"split_indices":[5,5,5,4,3,3,5,3,3,0,0,6,5,0,0,0,4,0,0,0,0,5,4,0,1,0,0,0,2,0,3,0,0,6,5,1,3,0,0,0,0,0,0,0,0,0,0,0,0,0,0,0,0],"split_type":[0,0,0,0,0,0,0,0,0,0,0,0,0,0,0,0,0,0,0,0,0,0,0,0,0,0,0,0,0,0,0,0,0,0,0,0,0,0,0,0,0,0,0,0,0,0,0,0,0,0,0,0,0],"sum_hessian":[1.09E2,3.2E1,7.7E1,2.7E1,5E0,7.3E1,4E0,1.7E1,1E1,3E0,2E0,6.6E1,7E0,2E0,2E0,8E0,9E0,7E0,3E0,1E0,1E0,3.6E1,3E1,4E0,3E0,1E0,1E0,1E0,7E0,2E0,7E0,1E0,6E0,1.4E1,2.2E1,1E1,2E1,2E0,1E0,4E0,3E0,1E0,1E0,5E0,2E0,4E0,1E1,6E0,1.6E1,6E0,4E0,1.9E1,1E0],"tree_param":{"num_deleted":"0","num_feature":"7","num_nodes":"53","size_leaf_vector":"0"}},{"base_weights":[7.6557153E-1,1.4911189E0,4.4879416E-1,9.0074235E-1,3.9976895E0,2.0241241E0,3.3628815E-1,1.4373176E-1,2.0576012E0,5.621397E0,5.001831E-1,2.6880703E0,-3.1583023E-1,-7.3324287E-1,4.7703803E-1,-7.229218E-1,9.0934676E-1,9.4460076E-1,3.2042816E0,7.1928406E-1,3.09906E-2,-1.48383E-1,-1.8535017E0,6.2165576E-1,-6.491475E-1,1.1853867E0,-1.1096337E0,-2.701238E-1,1.2379799E0,1.018416E0,2.508545E-1,1.1838531E0,4.156616E0,-3.8837892E-1,3.0107117E-1,-2.438881E0,-3.4137154E-1,1.6922632E-1,1.3224486E0,-1.2708517E0,8.106435E-1,-5.116684E-1,-1.5796819E0,-5.5765533E-1,1.5246964E-1,1.4236755E0,-3.0944824E-2,9.5134735E-2,3.5647202E-1,-6.0089046E-1,6.641187E-1,4.5107675E-1,3.249716E0,-1.7234316E0,-2.4379475E-1,2.4422073E-1,9.7174454E-1],"categories":[],"categories_nodes":[],"categories_segments":[],"categories_sizes":[],"default_left":[true,true,true,true,true,true,true,true,true,false,true,false,false,true,true,true,true,true,true,false,false,true,true,true,true,false,true,true,true,false,false,false,false,false,true,false,false,true,true,true,true,false,false,false,false,false,false,false,false,false,false,false,false,false,false,false,false],"id":13,"left_children":[1,3,5,7,9,11,13,15,17,-1,19,-1,-1,21,23,25,27,29,31,-1,-1,33,35,37,39,-1,41,43,45,-1,-1,-1,-1,-1,47,-1,-1,49,51,53,55,-1,-1,-1,-1,-1,-1,-1,-1,-1,-1,-1,-1,-1,-1,-1,-1],"loss_changes":[2.4612862E1,4.5233192E1,1.314357E1,2.4225382E1,3.126184E1,8.616991E0,1.1489476E1,1.26008E1,1.1012051E1,0E0,2.8611052E-1,0E0,0E0,5.6217213E0,1.1152728E1,7.9570346E0,4.210539E0,1.0298967E-1,4.699795E0,0E0,0E0,8.7199974E-1,1.8229446E0,1.8482706E1,8.290674E0,0E0,1.4403067E0,4.4955236E-1,1.9291258E0,0E0,0E0,0E0,0E0,0E0,3.143251E-4,0E0,0E0,1.4500686E1,3.715956E1,2.3687878E0,3.6433578E-2,0E0,0E0,0E0,0E0,0E0,0E0,0E0,0E0,0E0,0E0,0E0,0E0,0E0,0E0,0E0,0E0],"parents":[2147483647,0,0,1,1,2,2,3,3,4,4,5,5,6,6,7,7,8,8,10,10,13,13,14,14,15,15,16,16,17,17,18,18,21,21,22,22,23,23,24,24,26,26,27,27,28,28,34,34,37,37,38,38,39,39,40,40],"right_children":[2,4,6,8,10,12,14,16,18,-1,20,-1,-1,22,24,26,28,30,32,-1,-1,34,36,38,40,-1,42,44,46,-1,-1,-1,-1,-1,48,-1,-1,50,52,54,56,-1,-1,-1,-1,-1,-1,-1,-1,-1,-1,-1,-1,-1,-1,-1,-1],"split_conditions":[3.279193E-1,2.8838646E-1,2.2448419E-1,7.0485604E-1,8.6672837E-1,6.470927E-1,3.232294E-1,8.438836E-1,7.676426E-1,1.9674889E0,5.8935666E-1,9.4082457E-1,-1.1054058E-1,4.3777823E-1,6.5654933E-1,3.5753202E-1,5.915042E-1,8.575907E-1,7.2756326E-1,2.5174943E-1,1.084671E-2,5.7080114E-1,4.6980637E-1,4.5435026E-1,7.919791E-1,4.148853E-1,3.7033615E-1,5.169569E-1,6.951626E-1,3.564456E-1,8.779907E-2,4.143486E-1,1.4548156E0,-1.3593262E-1,3.425178E-1,-8.536083E-1,-1.19480036E-1,6.937398E-1,6.025839E-1,6.955706E-1,8.3177805E-1,-1.7908393E-1,-5.5288863E-1,-1.9517936E-1,5.336437E-2,4.9828643E-1,-1.0830688E-2,3.3297155E-2,1.247652E-1,-2.1031165E-1,2.3244154E-1,1.5787686E-1,1.1374006E0,-6.0320103E-1,-8.532816E-2,8.5477255E-2,3.4011057E-1],"split_indices":[5,5,4,4,3,3,4,3,3,0,0,0,0,0,6,0,4,0,4,0,0,1,0,3,4,0,2,0,4,0,0,0,0,0,0,0,0,5,0,1,0,0,0,0,0,0,0,0,0,0,0,0,0,0,0,0,0],"split_type":[0,0,0,0,0,0,0,0,0,0,0,0,0,0,0,0,0,0,0,0,0,0,0,0,0,0,0,0,0,0,0,0,0,0,0,0,0,0,0,0,0,0,0,0,0,0,0,0,0,0,0,0,0,0,0,0,0],"sum_hessian":[1.09E2,3.2E1,7.7E1,2.7E1,5E0,4E0,7.3E1,1.7E1,1E1,3E0,2E0,3E0,1E0,8E0,6.5E1,8E0,9E0,6E0,4E0,1E0,1E0,6E0,2E0,5.8E1,7E0,1E0,7E0,2E0,7E0,5E0,1E0,2E0,2E0,4E0,2E0,1E0,1E0,3.6E1,2.2E1,5E0,2E0,4E0,3E0,1E0,1E0,6E0,1E0,1E0,1E0,1.4E1,2.2E1,1.6E1,6E0,3E0,2E0,1E0,1E0],"tree_param":{"num_deleted":"0","num_feature":"7","num_nodes":"57","size_leaf_vector":"0"}},{"base_weights":[5.4767454E-1,1.1077747E0,3.0368766E-1,4.9213333E0,8.348093E-1,1.9940299E-1,1.7863632E0,2.913266E-1,1.7163366E0,3.2010868E-1,-7.0792794E-1,2.9689662E0,8.305867E-3,6.913384E-1,-4.4510984E-1,2.4721167E0,5.4853696E-1,8.743543E-1,4.2030632E-2,3.8042095E-1,-3.0114326E0,2.9409027E-1,-2.8163147E-1,1.1708456E0,1.8535233E-1,-1.151355E0,5.4897404E-1,1.0434551E0,3.2827492E0,1.9837013E-1,1.6656983E0,-2.0282707E0,2.9348126E-1,-3.4983864E-1,1.4707133E0,1.9194145E0,1.2956524E-1,-1.982193E-1,8.907115E-1,2.5568008E-2,7.1492004E-1,5.667949E-1,-3.2592455E-1,2.9280243E0,3.361435E-1,-5.828171E-1,-2.2439299E0,1.6783972E0,-4.10131E-2,-1.1691265E0,1.4726496E-1],"categories":[],"categories_nodes":[],"categories_segments":[],"categories_sizes":[],"default_left":[true,true,true,false,true,true,true,true,true,true,true,false,true,true,true,true,false,true,true,true,false,false,false,true,true,false,true,false,false,true,true,true,true,true,false,false,false,false,false,false,false,false,false,false,false,false,false,false,false,false,false],"id":14,"left_children":[1,3,5,-1,7,9,11,13,15,17,19,-1,21,23,25,27,-1,29,31,33,-1,-1,-1,35,37,-1,39,-1,-1,41,43,45,47,49,-1,-1,-1,-1,-1,-1,-1,-1,-1,-1,-1,-1,-1,-1,-1,-1,-1],"loss_changes":[1.4695862E1,3.0243614E1,1.170418E1,0E0,1.483102E1,8.331094E0,1.048902E1,6.49397E0,9.235149E0,1.0135405E1,2.3708763E1,0E0,3.3140376E-1,3.179716E0,6.248599E0,4.6814346E0,0E0,1.1438166E1,2.4021296E1,6.087888E0,0E0,0E0,0E0,5.2076015E0,2.3410022E0,0E0,3.2914948E-1,0E0,0E0,2.695853E0,1.579908E1,2.5082588E-1,1.9061945E1,2.2085261E0,0E0,0E0,0E0,0E0,0E0,0E0,0E0,0E0,0E0,0E0,0E0,0E0,0E0,0E0,0E0,0E0,0E0],"parents":[2147483647,0,0,1,1,2,2,4,4,5,5,6,6,7,7,8,8,9,9,10,10,12,12,13,13,14,14,15,15,17,17,18,18,19,19,23,23,24,24,26,26,29,29,30,30,31,31,32,32,33,33],"right_children":[2,4,6,-1,8,10,12,14,16,18,20,-1,22,24,26,28,-1,30,32,34,-1,-1,-1,36,38,-1,40,-1,-1,42,44,46,48,50,-1,-1,-1,-1,-1,-1,-1,-1,-1,-1,-1,-1,-1,-1,-1,-1,-1],"split_conditions":[3.279193E-1,5.108056E-1,9.1079104E-1,1.7224666E0,7.0485604E-1,8.4678113E-1,9.4371426E-1,5.216198E-1,7.84267E-1,4.9446803E-1,3.0568856E-1,1.0391382E0,4.4032043E-1,6.04035E-1,8.629756E-1,7.28597E-1,1.9198793E-1,5.547957E-1,5.0168884E-1,2.4109693E-1,-1.0540015E0,1.029316E-1,-9.857101E-2,8.4989685E-1,7.553865E-1,-4.0297425E-1,6.4919204E-1,3.6520928E-1,1.1489621E0,5.6849575E-1,6.1211586E-1,3.927101E-1,5.232127E-1,4.8301898E-2,5.1474965E-1,6.7179507E-1,4.5347832E-2,-6.937675E-2,3.11749E-1,8.948803E-3,2.50222E-1,1.983782E-1,-1.1407359E-1,1.0248085E0,1.1765022E-1,-2.0398597E-1,-7.853754E-1,5.87439E-1,-1.4354585E-2,-4.0919426E-1,5.1542733E-2],"split_indices":[5,4,5,0,4,5,5,1,4,4,6,0,0,4,3,4,0,1,4,6,0,0,0,3,6,0,0,0,0,3,1,1,4,3,0,0,0,0,0,0,0,0,0,0,0,0,0,0,0,0,0],"split_type":[0,0,0,0,0,0,0,0,0,0,0,0,0,0,0,0,0,0,0,0,0,0,0,0,0,0,0,0,0,0,0,0,0,0,0,0,0,0,0,0,0,0,0,0,0,0,0,0,0,0,0],"sum_hessian":[1.09E2,3.2E1,7.7E1,1E0,3.1E1,7.3E1,4E0,2E1,1.1E1,6.5E1,8E0,2E0,2E0,1.3E1,7E0,6E0,5E0,2.1E1,4.4E1,6E0,2E0,1E0,1E0,6E0,7E0,4E0,3E0,3E0,3E0,1.2E1,9E0,4E0,4E1,4E0,2E0,3E0,3E0,5E0,2E0,1E0,2E0,7E0,5E0,4E0,5E0,1E0,3E0,7E0,3.3E1,1E0,3E0],"tree_param":{"num_deleted":"0","num_feature":"7","num_nodes":"51","size_leaf_vector":"0"}},{"base_weights":[4.032732E-1,1.1814908E-1,7.558124E-1,-5.840312E-1,3.5467538E-1,4.4703774E0,5.026314E-1,4.3799162E-2,-1.0772103E0,-3.625725E-1,5.3409123E-1,6.281308E-1,-6.7718965E-1,-1.3338552E-1,6.42046E-1,-4.133629E-1,-1.5256157E0,1.2256775E-1,-7.064273E-1,2.1494427E0,3.342199E-1,-1.09255895E-1,7.9979795E-1,-1.821696E-1,-9.464798E-1,1.570015E-1,-2.8094062E-1,-1.0625203E-2,-6.7831296E-1,-1.8711185E0,-7.180214E-2,5.138588E-1,-1.0371971E-1,-1.0317053E0,-2.8586197E-1,9.286828E-1,-3.4983984E-1,3.7670168E-1,-8.108783E-1,4.7231144E-1,1.846026E0,-3.6304474E-2,-2.3694992E-1,2.0414543E-1,3.135681E-2,7.4157715E-3,-2.3353577E-2,-2.0234585E-1,-8.1512356E-1,9.86557E-2,-2.0406342E-1,-6.938451E-1,1.1603829E0,-7.1187794E-1,6.614273E-1,-2.6913452E-1,7.669034E-1,-1.0952333E0,2.1093369E-2,3.249501E-1,1.2752419E0,2.976733E0,9.730015E-1],"categories":[],"categories_nodes":[],"categories_segments":[],"categories_sizes":[],"default_left":[true,true,true,true,true,false,true,true,true,true,true,true,true,true,false,true,true,true,true,false,true,true,true,true,false,true,false,true,true,false,false,false,true,false,false,true,true,true,true,true,true,false,false,false,false,false,false,false,false,false,false,false,false,false,false,false,false,false,false,false,false,false,false],"id":15,"left_children":[1,3,5,7,9,-1,11,13,15,17,19,21,23,25,-1,27,29,31,33,-1,35,37,39,41,-1,43,-1,45,47,-1,-1,-1,49,-1,-1,51,53,55,57,59,61,-1,-1,-1,-1,-1,-1,-1,-1,-1,-1,-1,-1,-1,-1,-1,-1,-1,-1,-1,-1,-1,-1],"loss_changes":[1.0967621E1,1.0504356E1,4.3835457E1,5.0013056E0,6.2418714E0,0E0,7.3845034E0,9.33641E-1,2.0484219E0,1.7547629E0,1.1550387E1,5.5305405E0,4.9410057E-1,3.4404472E-1,0E0,5.263196E-1,2.3771334E0,4.960186E-1,5.2587867E-1,0E0,1.4557575E1,3.3740876E0,1.1119997E1,1.5369274E-2,0E0,1.1368811E-2,0E0,8.6208154E-4,3.0415177E-2,0E0,0E0,0E0,1.01360425E-1,0E0,0E0,7.947983E0,6.69485E0,1.7184386E0,9.6940327E-1,2.8985949E0,5.0007114E0,0E0,0E0,0E0,0E0,0E0,0E0,0E0,0E0,0E0,0E0,0E0,0E0,0E0,0E0,0E0,0E0,0E0,0E0,0E0,0E0,0E0,0E0],"parents":[2147483647,0,0,1,1,2,2,3,3,4,4,6,6,7,7,8,8,9,9,10,10,11,11,12,12,13,13,15,15,16,16,17,17,18,18,20,20,21,21,22,22,23,23,25,25,27,27,28,28,32,32,35,35,36,36,37,37,38,38,39,39,40,40],"right_children":[2,4,6,8,10,-1,12,14,16,18,20,22,24,26,-1,28,30,32,34,-1,36,38,40,42,-1,44,-1,46,48,-1,-1,-1,50,-1,-1,52,54,56,58,60,62,-1,-1,-1,-1,-1,-1,-1,-1,-1,-1,-1,-1,-1,-1,-1,-1,-1,-1,-1,-1,-1,-1],"split_conditions":[5.6699467E-1,5.9478456E-1,5.724213E-1,4.0084976E-1,3.76729E-1,1.564632E0,5.9676564E-1,8.1103027E-1,4.2771176E-1,2.619205E-1,4.2836744E-1,6.459996E-1,6.930939E-1,5.4726344E-1,2.2471608E-1,7.2574675E-1,6.2414145E-1,4.7759354E-2,7.2308916E-1,7.523049E-1,7.83085E-1,5.6136847E-1,6.498517E-1,6.261602E-1,-3.3126792E-1,2.454477E-1,-9.8329216E-2,5.835734E-1,5.6190395E-1,-6.548915E-1,-2.5130749E-2,1.7985058E-1,7.47478E-2,-3.6109683E-1,-1.00051686E-1,2.2822735E-1,9.009767E-1,6.2572956E-1,8.7371385E-1,5.1688766E-1,7.298445E-1,-1.2706566E-2,-8.293247E-2,7.14509E-2,1.0974884E-2,2.5955199E-3,-8.173752E-3,-7.082105E-2,-2.8529325E-1,3.4529496E-2,-7.14222E-2,-2.4284577E-1,4.06134E-1,-2.4915728E-1,2.3149955E-1,-9.419708E-2,2.684162E-1,-3.8333166E-1,7.382679E-3,1.1373253E-1,4.4633463E-1,1.0418565E0,3.405505E-1],"split_indices":[6,5,6,1,1,0,5,3,2,1,1,6,0,3,0,1,1,0,5,0,5,1,1,0,0,0,0,0,0,0,0,0,1,0,0,2,5,6,3,5,0,0,0,0,0,0,0,0,0,0,0,0,0,0,0,0,0,0,0,0,0,0,0],"split_type":[0,0,0,0,0,0,0,0,0,0,0,0,0,0,0,0,0,0,0,0,0,0,0,0,0,0,0,0,0,0,0,0,0,0,0,0,0,0,0,0,0,0,0,0,0,0,0,0,0,0,0,0,0,0,0,0,0,0,0,0,0,0,0],"sum_hessian":[1.09E2,6.1E1,4.8E1,1.5E1,4.6E1,2E0,4.6E1,7E0,8E0,9E0,3.7E1,4.2E1,4E0,6E0,1E0,4E0,4E0,4E0,5E0,3E0,3.4E1,8E0,3.4E1,2E0,2E0,2E0,4E0,2E0,2E0,3E0,1E0,1E0,3E0,2E0,3E0,1.8E1,1.6E1,5E0,3E0,2.7E1,7E0,1E0,1E0,1E0,1E0,1E0,1E0,1E0,1E0,1E0,2E0,2E0,1.6E1,1.2E1,4E0,2E0,3E0,2E0,1E0,2.4E1,3E0,2E0,5E0],"tree_param":{"num_deleted":"0","num_feature":"7","num_nodes":"63","size_leaf_vector":"0"}},{"base_weights":[2.8599384E-1,6.610611E-1,1.2364498E-1,3.2777786E0,4.7685808E-1,5.7323325E-2,1.0804764E0,8.499499E-1,-6.354209E-2,-2.7340093E-1,2.118343E-1,1.9482727E0,-1.4747874E-1,5.5813545E-1,1.389192E0,3.4286308E-1,-3.2741866E-1,-7.489031E-1,1.8655498E-1,4.627947E-1,-1.4001326E-1,1.2687683E-1,-3.4809494E-1,1.0223551E0,-5.2134924E-2,1.8550949E0,3.04924E-1,-3.0310312E-1,7.41622E-1,-5.506611E-1,3.0261993E-1,-2.95607E-1,-2.0102558E0,-8.0887415E-2,8.085222E-1,1.3982984E-1,3.3228683E0,-9.0534866E-1,2.035718E-1,-4.7174326E-1,2.1005706E-1,3.7259674E-1,8.4789276E-2,-4.7068405E-1,1.6029358E-2,8.9041775E-1,1.4761734E-1,-6.578531E-1,4.6245575E-2,4.3652725E-1,1.7402649E-2,8.343506E-2,-1.8534927E0,3.9490256E-1,-2.4919772E-1,1.7729378E-1,9.598338E-1,1.220281E0,9.784332E-3,-3.9090473E-2,-1.2440338E0,-2.4483554E-1,6.825836E-1],"categories":[],"categories_nodes":[],"categories_segments":[],"categories_sizes":[],"default_left":[true,true,true,false,true,true,true,true,true,true,true,false,true,true,true,true,true,true,true,true,true,false,false,false,true,false,true,true,true,true,true,true,false,true,true,true,false,true,true,false,false,false,false,false,false,false,false,false,false,false,false,false,false,false,false,false,false,false,false,false,false,false,false],"id":16,"left_children":[1,3,5,-1,7,9,11,13,15,17,19,-1,21,23,25,27,29,31,33,35,37,-1,-1,-1,39,-1,41,43,45,47,49,51,-1,53,55,57,-1,59,61,-1,-1,-1,-1,-1,-1,-1,-1,-1,-1,-1,-1,-1,-1,-1,-1,-1,-1,-1,-1,-1,-1,-1,-1],"loss_changes":[6.616355E0,1.4343204E1,4.887837E0,0E0,6.5058117E0,3.8393545E0,5.615404E0,2.2144566E0,1.6136308E0,5.3887525E0,4.5680876E0,0E0,2.0928569E-1,4.0194936E0,2.4653196E0,1.7702966E0,1.4325031E0,6.2669497E0,2.2278244E0,2.7246462E1,5.969375E0,0E0,0E0,0E0,8.6921865E-1,0E0,1.3099134E-2,1.679863E-1,2.2210026E-1,4.783082E-1,1.0698134E-1,6.059688E0,0E0,8.992124E-1,2.1187615E-1,3.9222794E0,0E0,2.0050917E0,3.6037989E0,0E0,0E0,0E0,0E0,0E0,0E0,0E0,0E0,0E0,0E0,0E0,0E0,0E0,0E0,0E0,0E0,0E0,0E0,0E0,0E0,0E0,0E0,0E0,0E0],"parents":[2147483647,0,0,1,1,2,2,4,4,5,5,6,6,7,7,8,8,9,9,10,10,12,12,13,13,14,14,15,15,16,16,17,17,18,18,19,19,20,20,24,24,26,26,27,27,28,28,29,29,30,30,31,31,33,33,34,34,35,35,37,37,38,38],"right_children":[2,4,6,-1,8,10,12,14,16,18,20,-1,22,24,26,28,30,32,34,36,38,-1,-1,-1,40,-1,42,44,46,48,50,52,-1,54,56,58,-1,60,62,-1,-1,-1,-1,-1,-1,-1,-1,-1,-1,-1,-1,-1,-1,-1,-1,-1,-1,-1,-1,-1,-1,-1,-1],"split_conditions":[3.279193E-1,5.108056E-1,9.1079104E-1,1.1472225E0,3.5679963E-1,3.8348043E-1,9.4371426E-1,6.1825335E-1,3.4665853E-1,5.7113045E-1,6.3281953E-1,6.8189543E-1,4.4032043E-1,5.216198E-1,7.1092665E-1,7.822132E-1,2.77585E-1,5.0687015E-1,8.599168E-1,6.1777014E-1,5.713824E-1,4.440689E-2,-1.2183323E-1,3.5782427E-1,5.304246E-1,6.4928323E-1,7.7183557E-1,5.469395E-1,5.426122E-1,5.9005475E-1,5.8935666E-1,3.7193704E-1,-7.035895E-1,7.481801E-2,3.1717768E-1,3.9138547E-1,1.1630039E0,4.0515578E-1,2.2822735E-1,-1.6511014E-1,7.3519975E-2,1.3040885E-1,2.9676246E-2,-1.6473942E-1,5.610275E-3,3.1164622E-1,5.166607E-2,-2.3024859E-1,1.618595E-2,1.5278454E-1,6.090927E-3,2.920227E-2,-6.4872247E-1,1.382159E-1,-8.72192E-2,6.205282E-2,3.3594182E-1,4.2709833E-1,3.424516E-3,-1.3681665E-2,-4.3541184E-1,-8.5692436E-2,2.3890425E-1],"split_indices":[5,4,5,0,2,6,5,1,1,2,0,0,0,1,1,3,5,2,5,0,4,0,0,0,1,0,0,0,0,0,0,6,0,0,0,6,0,3,2,0,0,0,0,0,0,0,0,0,0,0,0,0,0,0,0,0,0,0,0,0,0,0,0],"split_type":[0,0,0,0,0,0,0,0,0,0,0,0,0,0,0,0,0,0,0,0,0,0,0,0,0,0,0,0,0,0,0,0,0,0,0,0,0,0,0,0,0,0,0,0,0,0,0,0,0,0,0,0,0,0,0,0,0,0,0,0,0,0,0],"sum_hessian":[1.09E2,3.2E1,7.7E1,1E0,3.1E1,7.3E1,4E0,1.8E1,1.3E1,2.3E1,5E1,2E0,2E0,1.3E1,5E0,5E0,8E0,1.1E1,1.2E1,2.9E1,2.1E1,1E0,1E0,7E0,6E0,3E0,2E0,2E0,3E0,6E0,2E0,9E0,2E0,9E0,3E0,2.7E1,2E0,6E0,1.5E1,2E0,4E0,1E0,1E0,1E0,1E0,2E0,1E0,5E0,1E0,1E0,1E0,8E0,1E0,2E0,7E0,1E0,2E0,2E0,2.5E1,2E0,4E0,8E0,7E0],"tree_param":{"num_deleted":"0","num_feature":"7","num_nodes":"63","size_leaf_vector":"0"}},{"base_weights":[2.1680327E-1,4.1572787E-2,4.3409893E-1,-4.031148E-1,1.9207126E-1,2.6572113E0,2.82962E-1,1.8859625E-2,-7.334126E-1,6.9458455E-1,1.9231532E-2,7.811258E-1,1.6074567E-1,2.3222113E-1,-1.556015E-1,-8.261907E-1,4.4059753E-3,2.9597405E-1,2.53965E0,-8.835335E-1,1.9333987E-1,4.4985533E-1,1.7156448E0,2.3061582E-1,-5.082722E-1,3.1545258E-1,-8.73661E-3,-3.003397E-1,-4.4332027E-2,-9.397531E-1,-1.5626907E-2,8.6052704E-1,-2.3299217E-2,-8.433151E-2,-1.0265076E0,-3.284801E-3,6.0658014E-1,-3.1217575E-2,7.447426E-1,5.003598E-1,-6.69259E-2,-2.3164368E-1,-6.690788E-1,9.9313736E-2,3.7386513E-1,2.4158478E-2,-7.521502E-2,-1.0893856E0,-2.0978928E-2,-2.0137787E-1,1.2816213E0,1.8279521E-1,-4.2772165E-1,-2.8886795E-1,-1.1387005E0,3.6372513E-1,-5.7382417E-1,2.3278403E-1,1.4011765E0,-2.266159E-1,1.09453835E-1,9.454753E-1,2.957624E-1,1.4764954E0,1.4162394E-1,-3.231228E-1,2.2517353E-1],"categories":[],"categories_nodes":[],"categories_segments":[],"categories_sizes":[],"default_left":[true,true,true,true,true,false,true,true,true,true,true,true,true,true,true,true,false,true,false,true,true,true,false,true,true,true,false,false,true,true,false,true,true,false,true,true,true,true,true,true,true,false,false,false,false,false,false,false,false,false,false,false,false,false,false,false,false,false,false,false,false,false,false,false,false,false,false],"id":17,"left_children":[1,3,5,7,9,-1,11,13,15,17,19,21,23,25,27,29,-1,31,-1,33,35,37,-1,39,41,43,-1,-1,45,47,-1,49,51,-1,53,55,57,59,61,63,65,-1,-1,-1,-1,-1,-1,-1,-1,-1,-1,-1,-1,-1,-1,-1,-1,-1,-1,-1,-1,-1,-1,-1,-1,-1,-1],"loss_changes":[4.1704044E0,4.2267647E0,1.5711836E1,2.2438674E0,4.0687923E0,0E0,2.7359736E0,3.3392024E-1,6.1972046E-1,8.073879E0,5.829263E0,2.0144148E0,1.9402466E0,8.297704E-2,6.721005E-2,7.2171116E-1,0E0,2.0027628E0,0E0,5.990243E-1,2.520843E0,1.1581473E0,0E0,2.9228497E0,2.2946954E-2,7.456839E-4,0E0,0E0,1.0277849E-2,9.3949556E-1,0E0,2.0467386E0,7.4497914E-1,0E0,8.485556E-2,4.8153734E0,2.6439989E0,1.3475183E-1,1.709888E-1,6.4442153E0,1.419788E0,0E0,0E0,0E0,0E0,0E0,0E0,0E0,0E0,0E0,0E0,0E0,0E0,0E0,0E0,0E0,0E0,0E0,0E0,0E0,0E0,0E0,0E0,0E0,0E0,0E0,0E0],"parents":[2147483647,0,0,1,1,2,2,3,3,4,4,6,6,7,7,8,8,9,9,10,10,11,11,12,12,13,13,14,14,15,15,17,17,19,19,20,20,21,21,23,23,24,24,25,25,28,28,29,29,31,31,32,32,34,34,35,35,36,36,37,37,38,38,39,39,40,40],"right_children":[2,4,6,8,10,-1,12,14,16,18,20,22,24,26,28,30,-1,32,-1,34,36,38,-1,40,42,44,-1,-1,46,48,-1,50,52,-1,54,56,58,60,62,64,66,-1,-1,-1,-1,-1,-1,-1,-1,-1,-1,-1,-1,-1,-1,-1,-1,-1,-1,-1,-1,-1,-1,-1,-1,-1,-1],"split_conditions":[5.6699467E-1,5.9478456E-1,5.724213E-1,4.0084976E-1,6.780153E-1,9.3002397E-1,1.3993886E-1,2.770558E-1,5.339333E-1,6.7573315E-1,7.0086414E-1,5.969867E-1,6.3389266E-1,2.0096186E-1,2.1349612E-1,5.756158E-1,1.5420914E-3,6.1567825E-1,8.8887745E-1,4.3907923E-1,5.4118454E-1,7.987299E-1,6.0047567E-1,7.38811E-1,4.6493492E-1,1.5735364E-1,-3.0578135E-3,-1.0511889E-1,3.634348E-1,6.7050886E-1,-5.4694177E-3,2.4110648E-1,5.6849575E-1,-2.9516028E-2,3.0400008E-1,8.3781576E-1,8.926507E-1,8.8475513E-1,7.6413774E-1,6.248411E-1,8.438836E-1,-8.107529E-2,-2.3417759E-1,3.475981E-2,1.3085279E-1,8.455467E-3,-2.6325256E-2,-3.8128495E-1,-7.3426245E-3,-7.0482254E-2,4.4856745E-1,6.397832E-2,-1.4970258E-1,-1.0110378E-1,-3.9854518E-1,1.273038E-1,-2.0083846E-1,8.147441E-2,4.9041176E-1,-7.9315566E-2,3.830884E-2,3.3091635E-1,1.0351683E-1,5.167734E-1,4.956838E-2,-1.1309298E-1,7.881074E-2],"split_indices":[6,5,6,1,5,0,5,0,6,5,5,1,5,1,1,2,0,5,0,0,2,6,0,3,3,0,0,0,1,4,0,2,3,0,3,5,5,3,0,4,3,0,0,0,0,0,0,0,0,0,0,0,0,0,0,0,0,0,0,0,0,0,0,0,0,0,0],"split_type":[0,0,0,0,0,0,0,0,0,0,0,0,0,0,0,0,0,0,0,0,0,0,0,0,0,0,0,0,0,0,0,0,0,0,0,0,0,0,0,0,0,0,0,0,0,0,0,0,0,0,0,0,0,0,0,0,0,0,0,0,0,0,0,0,0,0,0],"sum_hessian":[1.09E2,6.1E1,4.8E1,1.5E1,4.6E1,2E0,4.6E1,7E0,8E0,1.1E1,3.5E1,8E0,3.8E1,3E0,4E0,7E0,1E0,1E1,1E0,5E0,3E1,7E0,1E0,3.5E1,3E0,2E0,1E0,1E0,3E0,6E0,1E0,3E0,7E0,1E0,4E0,2.1E1,9E0,3E0,4E0,1.8E1,1.7E1,2E0,1E0,1E0,1E0,1E0,2E0,5E0,1E0,1E0,2E0,5E0,2E0,1E0,3E0,1.3E1,8E0,7E0,2E0,1E0,2E0,2E0,2E0,4E0,1.4E1,9E0,8E0],"tree_param":{"num_deleted":"0","num_feature":"7","num_nodes":"67","size_leaf_vector":"0"}},{"base_weights":[1.6763254E-1,4.182397E-1,5.945729E-2,2.2391586E0,2.913623E-1,-3.2208588E-3,8.121319E-1,4.9393244E-2,6.905279E-1,-1.0269789E0,4.0081885E-2,1.2090302E0,1.2223561E-2,-5.909178E-2,5.2522755E-1,1.0429677E0,1.6426022E-1,-3.049331E-1,1.15422785E-1,1.3971533E0,3.2233047E-1,2.0509338E-1,-1.8675804E-1,3.6953545E-1,-2.523742E-1,7.1700287E-1,-2.504921E-2,1.3348938E0,2.087682E-1,-1.156044E-2,2.0173645E-1,-6.271067E-2,-1.0914377E0,3.285138E-2,7.241173E-1,-3.3176804E-1,5.7614976E-1,-3.1760946E-1,2.6522446E-1,2.8260803E-1,3.0544281E-2,-2.700056E-1,1.0051193E0,4.6238792E-1,-5.378596E-2,1.834577E0,-8.698197E-2],"categories":[],"categories_nodes":[],"categories_segments":[],"categories_sizes":[],"default_left":[true,true,true,false,true,true,true,true,true,false,true,true,true,true,true,true,true,true,true,false,false,false,false,true,true,false,false,false,true,false,false,true,false,true,true,false,false,false,false,false,false,false,false,false,false,false,false],"id":18,"left_children":[1,3,5,-1,7,9,11,13,15,-1,17,19,21,23,25,27,29,31,33,-1,-1,-1,-1,35,37,-1,-1,-1,39,-1,-1,41,-1,43,45,-1,-1,-1,-1,-1,-1,-1,-1,-1,-1,-1,-1],"loss_changes":[2.9571767E0,6.9716983E0,3.682363E0,0E0,3.056636E0,3.277365E0,1.890115E0,1.1150755E0,2.0544138E0,0E0,1.8807517E0,2.1688938E-1,1.5343548E-1,1.5844913E0,4.4007838E-1,1.4259887E0,4.186672E-2,2.4081728E0,2.9415965E0,0E0,0E0,0E0,0E0,1.0605441E0,5.2319175E-1,0E0,0E0,0E0,3.0848026E-2,0E0,0E0,2.7063012E0,0E0,1.9972069E0,6.464426E0,0E0,0E0,0E0,0E0,0E0,0E0,0E0,0E0,0E0,0E0,0E0,0E0],"parents":[2147483647,0,0,1,1,2,2,4,4,5,5,6,6,7,7,8,8,10,10,11,11,12,12,13,13,14,14,15,15,16,16,17,17,18,18,23,23,24,24,28,28,31,31,33,33,34,34],"right_children":[2,4,6,-1,8,10,12,14,16,-1,18,20,22,24,26,28,30,32,34,-1,-1,-1,-1,36,38,-1,-1,-1,40,-1,-1,42,-1,44,46,-1,-1,-1,-1,-1,-1,-1,-1,-1,-1,-1,-1],"split_conditions":[3.279193E-1,5.108056E-1,9.009767E-1,7.8370553E-1,7.0485604E-1,1.1484711E-1,9.4371426E-1,2.759847E-1,7.84267E-1,-3.594426E-1,4.838251E-1,8.660414E-1,4.4032043E-1,3.4665853E-1,6.170591E-1,7.1092665E-1,6.8179715E-1,7.371863E-1,7.891741E-1,4.8900363E-1,1.1281566E-1,7.1782686E-2,-6.5365314E-2,7.822132E-1,5.9489655E-1,2.50951E-1,-8.767223E-3,4.6721283E-1,7.7183557E-1,-4.0461537E-3,7.060776E-2,6.7194825E-1,-3.820032E-1,5.690943E-1,8.459641E-1,-1.1611881E-1,2.0165241E-1,-1.1116331E-1,9.282856E-2,9.891281E-2,1.0690498E-2,-9.4501965E-2,3.5179177E-1,1.6183577E-1,-1.8825086E-2,6.4210194E-1,-3.0443689E-2],"split_indices":[5,4,5,0,4,3,5,5,4,0,5,1,0,1,0,1,0,0,1,0,0,0,0,3,1,0,0,0,0,0,0,0,0,5,1,0,0,0,0,0,0,0,0,0,0,0,0],"split_type":[0,0,0,0,0,0,0,0,0,0,0,0,0,0,0,0,0,0,0,0,0,0,0,0,0,0,0,0,0,0,0,0,0,0,0,0,0,0,0,0,0,0,0,0,0,0,0],"sum_hessian":[1.09E2,3.2E1,7.7E1,1E0,3.1E1,7.2E1,5E0,2E1,1.1E1,2E0,7E1,3E0,2E0,1.7E1,3E0,6E0,5E0,1.2E1,5.8E1,2E0,1E0,1E0,1E0,5E0,1.2E1,2E0,1E0,4E0,2E0,1E0,4E0,1E1,2E0,5.2E1,6E0,1E0,4E0,1.1E1,1E0,1E0,1E0,9E0,1E0,8E0,4.4E1,2E0,4E0],"tree_param":{"num_deleted":"0","num_feature":"7","num_nodes":"47","size_leaf_vector":"0"}},{"base_weights":[1.3273506E-1,3.2447606E-1,4.9912136E-2,1.8473053E0,2.1915936E-1,1.6110041E-3,6.292572E-1,4.0189722E-1,-4.4496264E-2,6.483393E-2,-5.201795E-1,9.3632317E-1,1.0083516E-2,5.803556E-1,1.3912624E-1,5.9739027E-2,-3.2001925E-1,-1.3817622E-1,2.3784727E-1,-1.4462891E0,3.2474405E-1,1.0711492E0,2.6592255E-1,1.692009E-1,-1.5407562E-1,8.0823517E-1,1.4525299E-1,-2.2481728E-1,3.5856757E-1,1.7961669E-1,-1.9495106E-1,-4.129149E-1,-2.0666122E-2,-6.3538045E-1,-1.8122306E-2,7.183576E-1,-6.497847E-2,-1.3976765E-1,4.7581387E-1,2.1797943E-1,1.0007416E0,1.7968242E-1,6.2405903E-2,4.8583984E-1,6.9348656E-2,-7.771263E-2,4.5637417E-1,-2.6113763E-1,1.8043518E-3,-6.1945915E-2,-1.1881663E0,-2.4154721E-1,1.9063814E-1,1.0888977E0,-4.8021698E-1,1.5054776E-1,-3.1378415E-1,1.1494255E-1,5.577901E-1],"categories":[],"categories_nodes":[],"categories_segments":[],"categories_sizes":[],"default_left":[true,true,true,false,true,true,true,true,true,true,true,true,true,true,true,true,true,true,true,false,true,false,false,false,false,true,true,false,true,true,true,false,false,true,true,true,true,false,true,false,false,false,false,false,false,false,false,false,false,false,false,false,false,false,false,false,false,false,false],"id":19,"left_children":[1,3,5,-1,7,9,11,13,15,17,19,21,23,25,27,29,31,33,35,-1,37,-1,-1,-1,-1,39,41,-1,43,45,47,-1,-1,49,51,53,55,-1,57,-1,-1,-1,-1,-1,-1,-1,-1,-1,-1,-1,-1,-1,-1,-1,-1,-1,-1,-1,-1],"loss_changes":[1.7306653E0,4.887665E0,2.181662E0,0E0,1.5596386E0,2.4419312E0,1.1313214E0,8.1023717E-1,4.2118672E-1,2.3510134E0,6.7296076E0,7.6707125E-2,1.0443144E-1,9.732623E-1,7.993904E-1,3.7086463E-1,1.027011E-1,1.8389161E0,5.285071E0,0E0,4.1737193E-1,0E0,0E0,0E0,0E0,5.7725525E-1,3.0486435E-3,0E0,1.8716496E-1,6.052085E-1,5.2561462E-2,0E0,0E0,1.8283172E0,1.2587475E0,6.7405868E0,1.2805951E0,0E0,5.4217696E-2,0E0,0E0,0E0,0E0,0E0,0E0,0E0,0E0,0E0,0E0,0E0,0E0,0E0,0E0,0E0,0E0,0E0,0E0,0E0,0E0],"parents":[2147483647,0,0,1,1,2,2,4,4,5,5,6,6,7,7,8,8,9,9,10,10,11,11,12,12,13,13,14,14,15,15,16,16,17,17,18,18,20,20,25,25,26,26,28,28,29,29,30,30,33,33,34,34,35,35,36,36,38,38],"right_children":[2,4,6,-1,8,10,12,14,16,18,20,22,24,26,28,30,32,34,36,-1,38,-1,-1,-1,-1,40,42,-1,44,46,48,-1,-1,50,52,54,56,-1,58,-1,-1,-1,-1,-1,-1,-1,-1,-1,-1,-1,-1,-1,-1,-1,-1,-1,-1,-1,-1],"split_conditions":[3.279193E-1,5.108056E-1,9.009767E-1,6.4655685E-1,3.5679963E-1,8.4678113E-1,9.4371426E-1,8.40453E-1,5.1610136E-1,5.565269E-1,5.3928316E-1,8.660414E-1,4.4032043E-1,7.697238E-1,8.6280704E-1,9.1248983E-1,6.042462E-1,3.6398238E-1,5.208897E-1,-5.0620115E-1,1.919633E-1,3.7490222E-1,9.307289E-2,5.9220314E-2,-5.3926468E-2,4.794268E-1,8.361174E-1,-7.868604E-2,8.891616E-1,4.4902876E-1,5.874338E-1,-1.4452021E-1,-7.233143E-3,3.3976355E-1,4.529559E-1,6.367955E-1,2.6419038E-1,-4.8918676E-2,3.1717768E-1,7.62928E-2,3.5025954E-1,6.2888846E-2,2.1842066E-2,1.7004395E-1,2.4272028E-2,-2.7199421E-2,1.5973096E-1,-9.139817E-2,6.3152314E-4,-2.168107E-2,-4.1585818E-1,-8.454152E-2,6.672335E-2,3.8111418E-1,-1.6807593E-1,5.2691713E-2,-1.0982445E-1,4.022989E-2,1.9522654E-1],"split_indices":[5,4,5,0,2,5,5,3,1,1,2,1,0,4,3,3,0,3,4,0,0,0,0,0,0,1,0,0,3,2,0,0,0,3,2,0,2,0,0,0,0,0,0,0,0,0,0,0,0,0,0,0,0,0,0,0,0,0,0],"split_type":[0,0,0,0,0,0,0,0,0,0,0,0,0,0,0,0,0,0,0,0,0,0,0,0,0,0,0,0,0,0,0,0,0,0,0,0,0,0,0,0,0,0,0,0,0,0,0,0,0,0,0,0,0,0,0,0,0,0,0],"sum_hessian":[1.09E2,3.2E1,7.7E1,1E0,3.1E1,7.2E1,5E0,1.8E1,1.3E1,6.5E1,7E0,3E0,2E0,1E1,8E0,1E1,3E0,3E1,3.5E1,3E0,4E0,2E0,1E0,1E0,1E0,6E0,4E0,3E0,5E0,7E0,3E0,2E0,1E0,5E0,2.5E1,1.3E1,2.2E1,1E0,3E0,2E0,4E0,2E0,2E0,3E0,2E0,4E0,3E0,2E0,1E0,3E0,2E0,1.2E1,1.3E1,1E1,3E0,1.2E1,1E1,1E0,2E0],"tree_param":{"num_deleted":"0","num_feature":"7","num_nodes":"59","size_leaf_vector":"0"}},{"base_weights":[9.5529385E-2,1.3373408E-1,-2.998909E-1,9.297766E-2,1.0988326E0,-8.737437E-1,-4.720974E-2,2.2161396E-1,-4.0181372E-2,1.1126995E-1,1.3909302E0,-3.152481E-1,2.9964066E-1,1.5428609E-1,6.1315864E-1,3.4241088E-2,-4.2587662E-1,4.2179108E-2,-4.151497E-1,3.5242972E-1,7.063675E-2,9.803023E-2,6.9233704E-1,8.6001587E-1,-2.6563008E-3,-5.820071E-1,7.960367E-2,-7.0594025E-1,-1.1665039E-1,-1.2711143E-1,-4.6879196E-1,2.7926064E-1,-7.1180604E-2,1.206365E0,2.2699483E-1,-1.704979E-2,1.3065338E-2,1.9528879E-2,6.153946E-1,-4.7683716E-3,-1.434288E-1],"categories":[],"categories_nodes":[],"categories_segments":[],"categories_sizes":[],"default_left":[true,true,true,true,true,false,true,true,true,false,false,true,true,true,true,true,true,false,true,false,false,true,false,true,true,false,true,false,true,false,false,false,false,false,false,false,false,false,false,false,false],"id":20,"left_children":[1,3,5,7,9,-1,11,13,15,-1,-1,17,19,21,23,25,27,-1,29,-1,-1,31,-1,33,35,-1,37,-1,39,-1,-1,-1,-1,-1,-1,-1,-1,-1,-1,-1,-1],"loss_changes":[1.7018654E0,3.870562E0,1.4087688E0,1.6875551E0,9.990902E-1,0E0,8.382149E-1,1.2234917E0,1.4210975E0,0E0,0E0,1.9604835E-1,2.3461103E-2,1.2639447E0,1.0664132E0,1.2204236E0,6.104759E-1,0E0,2.2153258E-3,0E0,0E0,1.27719E0,0E0,8.223927E-1,9.01629E-4,0E0,1.2754831E0,0E0,1.4296196E-2,0E0,0E0,0E0,0E0,0E0,0E0,0E0,0E0,0E0,0E0,0E0,0E0],"parents":[2147483647,0,0,1,1,2,2,3,3,4,4,6,6,7,7,8,8,11,11,12,12,13,13,14,14,15,15,16,16,18,18,21,21,23,23,24,24,26,26,28,28],"right_children":[2,4,6,8,10,-1,12,14,16,-1,-1,18,20,22,24,26,28,-1,30,-1,-1,32,-1,34,36,-1,38,-1,40,-1,-1,-1,-1,-1,-1,-1,-1,-1,-1,-1,-1],"split_conditions":[8.093101E-1,7.891741E-1,4.8025537E-1,5.690943E-1,5.380015E-1,-3.058103E-1,5.3687465E-1,6.523888E-1,5.60644E-1,3.8944483E-2,4.8682556E-1,4.591971E-1,9.407002E-1,5.4280806E-1,8.66639E-1,1.1484711E-1,5.533992E-1,1.47626875E-2,5.0869584E-1,1.233504E-1,2.4722861E-2,4.2638972E-1,2.4231796E-1,7.298445E-1,7.100633E-1,-2.0370248E-1,8.926507E-1,-2.4707909E-1,6.261602E-1,-4.4489E-2,-1.6407718E-1,9.7741224E-2,-2.491321E-2,4.2222774E-1,7.9448186E-2,-5.967426E-3,4.5728683E-3,6.8351077E-3,2.153881E-1,-1.66893E-3,-5.020008E-2],"split_indices":[1,1,5,5,0,0,4,1,6,0,0,0,1,5,3,3,4,0,0,0,0,1,0,0,0,0,5,0,0,0,0,0,0,0,0,0,0,0,0,0,0],"split_type":[0,0,0,0,0,0,0,0,0,0,0,0,0,0,0,0,0,0,0,0,0,0,0,0,0,0,0,0,0,0,0,0,0,0,0,0,0,0,0,0,0],"sum_hessian":[1.09E2,1E2,9E0,9.7E1,3E0,2E0,7E0,4.9E1,4.8E1,1E0,2E0,4E0,3E0,4.3E1,6E0,4.1E1,7E0,1E0,3E0,2E0,1E0,4E1,3E0,4E0,2E0,2E0,3.9E1,3E0,4E0,1E0,2E0,1.9E1,2.1E1,2E0,2E0,1E0,1E0,3.6E1,3E0,1E0,3E0],"tree_param":{"num_deleted":"0","num_feature":"7","num_nodes":"41","size_leaf_vector":"0"}},{"base_weights":[6.85413E-2,-1.0476106E-1,1.2617895E-1,2.1804498E-1,-2.9621136E-1,3.3877015E-1,4.39531E-2,3.6834173E-2,4.281311E-1,-1.4342487E-1,-1.0123354E0,-1.7707014E-1,5.755172E-1,7.963354E-2,-2.963899E-1,2.0737763E-1,-2.5968298E-1,5.1921463E-1,3.18985E-2,6.261215E-1,-2.364694E-1,-3.344547E-1,4.623108E-1,7.969046E-1,-2.8787136E-1,-4.242274E-1,1.0615112E-1,-6.698697E-1,5.781746E-2,-1.1872673E-1,3.185854E-1,5.871455E-1,1.5771103E-1,1.9230175E-1,-3.5968733E-1,-1.2718439E-1,-4.581113E-1,9.456523E-1,-4.940338E-1,-4.9720636E-1,1.7006683E-1,2.6472557E-2,3.3191326E-1,-1.9022179E-1,2.0390446E-1,9.140968E-2,3.6384073E-1,3.7506232E-1,-1.7798996E-1,-5.0760906E-2,-5.730975E-1,-7.4386597E-3,-1.6462009E-1,1.9932048E-1,1.0749867E0,-2.896533E-1,5.905232E-2,4.882923E-1,-4.722748E-2,5.8275223E-2,2.4758148E-1],"categories":[],"categories_nodes":[],"categories_segments":[],"categories_sizes":[],"default_left":[true,true,true,true,true,true,true,true,true,true,false,true,true,true,true,true,false,true,false,false,true,true,false,true,true,false,true,false,true,false,true,false,false,true,true,true,false,true,false,false,false,true,true,false,true,false,false,false,false,false,false,false,false,false,false,false,false,false,false,false,false],"id":21,"left_children":[1,3,5,7,9,11,13,15,17,19,-1,21,23,25,27,29,-1,31,-1,-1,33,35,-1,37,39,-1,41,-1,43,-1,45,-1,-1,47,49,51,-1,53,-1,-1,-1,55,57,-1,59,-1,-1,-1,-1,-1,-1,-1,-1,-1,-1,-1,-1,-1,-1,-1,-1],"loss_changes":[1.1119801E0,1.795024E0,1.4359908E0,4.0299875E-1,1.8242595E0,2.910751E0,7.6436156E-1,4.0783584E-1,1.6388911E-1,1.2936919E0,0E0,9.5965135E-1,3.2877007E0,7.932579E-1,8.32466E-1,2.1915129E-1,0E0,5.629778E-3,0E0,0E0,8.616529E-1,1.2114781E-1,0E0,2.963498E0,4.6800834E-1,0E0,9.625872E-1,0E0,1.8372832E-1,0E0,7.865131E-3,0E0,0E0,3.3745623E-1,7.620455E-1,1.6706504E-2,0E0,9.440489E-1,0E0,0E0,0E0,4.3937618E-1,8.531163E-1,0E0,4.654087E-3,0E0,0E0,0E0,0E0,0E0,0E0,0E0,0E0,0E0,0E0,0E0,0E0,0E0,0E0,0E0,0E0],"parents":[2147483647,0,0,1,1,2,2,3,3,4,4,5,5,6,6,7,7,8,8,9,9,11,11,12,12,13,13,14,14,15,15,17,17,20,20,21,21,23,23,24,24,26,26,28,28,30,30,33,33,34,34,35,35,37,37,41,41,42,42,44,44],"right_children":[2,4,6,8,10,12,14,16,18,20,-1,22,24,26,28,30,-1,32,-1,-1,34,36,-1,38,40,-1,42,-1,44,-1,46,-1,-1,48,50,52,-1,54,-1,-1,-1,56,58,-1,60,-1,-1,-1,-1,-1,-1,-1,-1,-1,-1,-1,-1,-1,-1,-1,-1],"split_conditions":[3.8348043E-1,2.9464808E-1,5.251591E-1,9.009767E-1,5.0810117E-1,3.951152E-1,7.966751E-1,5.208897E-1,9.4371426E-1,3.0764192E-1,-3.543174E-1,5.1434755E-1,6.367955E-1,1.7746489E-1,4.8025537E-1,1.919633E-1,-9.0889044E-2,8.660414E-1,1.1164474E-2,2.1914253E-1,2.286375E-1,4.9131322E-1,1.6180877E-1,7.821408E-1,7.160822E-1,-1.4847958E-1,6.426157E-1,-2.344544E-1,7.165624E-1,-4.1554354E-2,3.1717768E-1,2.0550093E-1,5.519886E-2,6.470927E-1,5.846614E-1,5.2576387E-1,-1.6033895E-1,3.8243166E-1,-1.7291184E-1,-1.7402223E-1,5.9523392E-2,5.5830264E-1,7.4180996E-1,-6.657762E-2,8.5059124E-1,3.199339E-2,1.2734425E-1,1.3127181E-1,-6.2296484E-2,-1.7766317E-2,-2.0058413E-1,-2.603531E-3,-5.761703E-2,6.976217E-2,3.7624535E-1,-1.0137866E-1,2.0668311E-2,1.7090231E-1,-1.6529618E-2,2.0396328E-2,8.6653516E-2],"split_indices":[6,3,4,5,0,1,1,4,5,3,0,4,0,3,5,0,0,1,0,0,4,4,0,5,1,0,1,0,0,0,0,0,0,3,5,3,0,3,0,0,0,4,1,0,0,0,0,0,0,0,0,0,0,0,0,0,0,0,0,0,0],"split_type":[0,0,0,0,0,0,0,0,0,0,0,0,0,0,0,0,0,0,0,0,0,0,0,0,0,0,0,0,0,0,0,0,0,0,0,0,0,0,0,0,0,0,0,0,0,0,0,0,0,0,0,0,0,0,0,0,0,0,0,0,0],"sum_hessian":[1.09E2,2.7E1,8.2E1,1E1,1.7E1,2.2E1,6E1,6E0,4E0,1.5E1,2E0,7E0,1.5E1,5.5E1,5E0,4E0,2E0,3E0,1E0,1E0,1.4E1,6E0,1E0,1.2E1,3E0,2E0,5.3E1,2E0,3E0,1E0,3E0,2E0,1E0,3E0,1.1E1,3E0,3E0,1.1E1,1E0,2E0,1E0,4E1,1.3E1,1E0,2E0,1E0,2E0,2E0,1E0,5E0,6E0,1E0,2E0,2E0,9E0,3E0,3.7E1,9E0,4E0,1E0,1E0],"tree_param":{"num_deleted":"0","num_feature":"7","num_nodes":"61","size_leaf_vector":"0"}},{"base_weights":[4.3144833E-2,-6.5634266E-2,9.267277E-2,1.4180601E-2,-6.877446E-1,1.2870255E0,5.9587732E-2,1.5498178E-1,-3.1108016E-1,-8.233802E-1,-1.40419E-1,1.0041063E-1,-2.5093693E-1,4.1869212E-2,5.5381316E-1,-9.492175E-1,-3.2893658E-2,7.054418E-1,4.0239703E-2,-6.9674686E-2,-3.820118E-1,-6.523383E-2,4.5981407E-1,7.541275E-2,6.545601E-1,6.207886E-1,-2.1496092E-1,2.914257E-1,1.022316E0,2.7672067E-1,8.102699E-5,-2.025919E-1,1.4202595E-2,-4.431982E-1,-6.863308E-2,1.896909E-1,-1.15201E-1,7.8416824E-2,-4.5459843E-1,1.337843E-1,7.101059E-1,-3.3225626E-2,2.7207184E-1,5.235036E-2,-5.0120354E-2],"categories":[],"categories_nodes":[],"categories_segments":[],"categories_sizes":[],"default_left":[true,true,true,true,true,false,true,true,true,false,false,true,true,true,true,false,true,true,true,true,true,true,false,false,false,false,true,false,false,true,true,false,true,false,false,false,false,false,false,false,false,false,false,false,false],"id":22,"left_children":[1,3,5,7,9,-1,11,13,15,-1,-1,17,19,21,23,-1,25,27,29,31,33,35,-1,-1,-1,-1,37,-1,-1,39,41,-1,43,-1,-1,-1,-1,-1,-1,-1,-1,-1,-1,-1,-1],"loss_changes":[5.98719E-1,1.7476306E0,2.926465E0,1.5137188E0,1.8132901E-1,0E0,9.7593546E-1,1.0144076E0,1.7439889E0,0E0,0E0,2.4107676E0,1.8721372E-1,8.8049555E-1,1.9162464E-1,0E0,1.0855583E0,4.892168E-1,5.8877695E-1,5.8620997E-2,6.545454E-2,2.2565846E-1,0E0,0E0,0E0,0E0,5.277784E-1,0E0,0E0,4.6251762E-1,4.982313E-1,0E0,1.2438926E-2,0E0,0E0,0E0,0E0,0E0,0E0,0E0,0E0,0E0,0E0,0E0,0E0],"parents":[2147483647,0,0,1,1,2,2,3,3,4,4,6,6,7,7,8,8,11,11,12,12,13,13,14,14,16,16,17,17,18,18,19,19,20,20,21,21,26,26,29,29,30,30,32,32],"right_children":[2,4,6,8,10,-1,12,14,16,-1,-1,18,20,22,24,-1,26,28,30,32,34,36,-1,-1,-1,-1,38,-1,-1,40,42,-1,44,-1,-1,-1,-1,-1,-1,-1,-1,-1,-1,-1,-1],"split_conditions":[5.011423E-1,4.9674022E-1,5.0185776E-1,6.1211586E-1,5.8611953E-1,4.504589E-1,4.739458E-1,5.7491994E-1,6.292021E-1,-2.8818306E-1,-4.9146652E-2,5.19944E-1,3.7167686E-1,8.599168E-1,3.5507315E-1,-3.3222613E-1,6.385331E-1,4.0372163E-1,1.3993886E-1,5.328535E-1,5.2623147E-1,7.481801E-2,1.6093493E-1,2.6394462E-2,2.2909603E-1,2.1727599E-1,2.5310624E-1,1.0199899E-1,3.578106E-1,5.969867E-1,8.1243265E-1,-7.090716E-2,2.6977754E-1,-1.5511937E-1,-2.4021577E-2,6.639182E-2,-4.0320348E-2,2.7445888E-2,-1.5910944E-1,4.6824504E-2,2.4853706E-1,-1.1628969E-2,9.522514E-2,1.8322626E-2,-1.7542124E-2],"split_indices":[4,4,4,1,0,0,2,1,1,0,0,4,0,5,0,0,1,3,5,4,1,0,0,0,0,0,6,0,0,1,5,0,1,0,0,0,0,0,0,0,0,0,0,0,0],"split_type":[0,0,0,0,0,0,0,0,0,0,0,0,0,0,0,0,0,0,0,0,0,0,0,0,0,0,0,0,0,0,0,0,0,0,0,0,0,0,0,0,0,0,0,0,0],"sum_hessian":[1.09E2,3.4E1,7.5E1,3.1E1,3E0,1E0,7.4E1,2.2E1,9E0,2E0,1E0,6.6E1,8E0,1.8E1,4E0,2E0,7E0,5E0,6.1E1,4E0,4E0,1.5E1,3E0,1E0,3E0,1E0,6E0,3E0,2E0,8E0,5.3E1,1E0,3E0,3E0,1E0,2E0,1.3E1,3E0,3E0,7E0,1E0,4.8E1,5E0,2E0,1E0],"tree_param":{"num_deleted":"0","num_feature":"7","num_nodes":"45","size_leaf_vector":"0"}},{"base_weights":[3.621195E-2,8.009111E-2,-4.9035173E-2,4.7703408E-2,8.199031E-1,1.6213748E-1,-1.7897494E-1,-2.3132324E-1,9.723766E-2,2.5669098E-1,9.731636E-1,-2.4683952E-2,2.580166E-1,-7.1806334E-2,-5.718544E-1,-6.541405E-1,-1.2362747E-1,6.346502E-2,1.0617981E0,1.87891E-1,-1.0477714E-1,1.3239861E-2,3.6102948E-1,-1.2949613E-1,5.121498E-1,-2.9942831E-2,-2.1132354E-1,9.299009E-2,-2.7990875E-1,-1.2622118E-1,-9.500504E-3,-9.645271E-2,8.1954956E-2,4.3200836E-1,1.2238821E-1,-4.0644774E-1,-1.5528543E-3,3.8244724E-2,-1.10878624E-1,-2.4347973E-1,-4.134941E-2,2.2647312E-2,2.0067224E-1,-4.5491982E-1,2.1006775E-1,1.103363E-1,1.259613E-2,5.6008404E-1,1.5992992E-1,-8.2634354E-1,-1.5719986E-1,2.1287537E-1,-1.4433247E-1],"categories":[],"categories_nodes":[],"categories_segments":[],"categories_sizes":[],"default_left":[true,true,true,true,true,true,true,true,true,false,false,true,true,true,false,false,true,true,false,false,true,true,true,true,false,true,true,true,true,false,false,false,true,true,false,true,true,false,false,false,false,false,false,false,false,false,false,false,false,false,false,false,false],"id":23,"left_children":[1,3,5,7,9,11,13,15,17,-1,-1,19,21,23,-1,-1,25,27,-1,-1,29,31,33,35,-1,37,39,41,43,-1,-1,-1,45,47,-1,49,51,-1,-1,-1,-1,-1,-1,-1,-1,-1,-1,-1,-1,-1,-1,-1,-1],"loss_changes":[4.1539025E-1,1.710027E0,1.0717281E0,1.0038112E0,9.152174E-3,2.7505296E-1,9.694415E-1,4.2002207E-1,1.9197338E0,0E0,0E0,1.2184153E-1,2.4737161E-1,7.400875E-1,0E0,0E0,7.583013E-2,6.343168E-1,0E0,0E0,9.016417E-3,3.805492E-2,6.569672E-2,6.726166E-1,0E0,3.7353408E-2,1.726085E-2,4.196364E-1,5.243205E-1,0E0,0E0,0E0,4.5156814E-3,8.465898E-2,0E0,4.980477E-1,4.593485E-1,0E0,0E0,0E0,0E0,0E0,0E0,0E0,0E0,0E0,0E0,0E0,0E0,0E0,0E0,0E0,0E0],"parents":[2147483647,0,0,1,1,2,2,3,3,4,4,5,5,6,6,7,7,8,8,11,11,12,12,13,13,16,16,17,17,20,20,21,21,22,22,23,23,25,25,26,26,27,27,28,28,32,32,33,33,35,35,36,36],"right_children":[2,4,6,8,10,12,14,16,18,-1,-1,20,22,24,-1,-1,26,28,-1,-1,30,32,34,36,-1,38,40,42,44,-1,-1,-1,46,48,-1,50,52,-1,-1,-1,-1,-1,-1,-1,-1,-1,-1,-1,-1,-1,-1,-1,-1],"split_conditions":[6.780153E-1,6.719675E-1,4.4499028E-1,4.3646947E-1,5.6368273E-1,3.7550056E-1,4.384219E-1,5.756158E-1,5.112996E-1,8.984184E-2,3.4060726E-1,4.7759354E-2,2.7236557E-1,4.2298186E-1,-2.0014904E-1,-2.2894916E-1,2.9808939E-1,8.0510134E-1,3.7162933E-1,6.576185E-2,3.2067454E-1,5.191746E-1,6.005509E-1,5.100173E-1,1.7925243E-1,2.878769E-1,5.828815E-1,5.7019866E-1,8.8031167E-1,-4.4177413E-2,-3.3251762E-3,-3.375845E-2,3.7128758E-1,3.4923625E-1,4.2835873E-2,3.1399566E-1,5.603032E-1,1.33856535E-2,-3.880752E-2,-8.52179E-2,-1.4472294E-2,7.926559E-3,7.023528E-2,-1.5922193E-1,7.352371E-2,3.8617704E-2,4.4086454E-3,1.9602941E-1,5.597547E-2,-2.8922024E-1,-5.501995E-2,7.450638E-2,-5.0516363E-2],"split_indices":[5,5,0,0,0,1,3,2,2,0,0,0,3,3,0,0,1,1,0,0,1,2,1,4,0,0,4,1,0,0,0,0,0,3,0,3,4,0,0,0,0,0,0,0,0,0,0,0,0,0,0,0,0],"split_type":[0,0,0,0,0,0,0,0,0,0,0,0,0,0,0,0,0,0,0,0,0,0,0,0,0,0,0,0,0,0,0,0,0,0,0,0,0,0,0,0,0,0,0,0,0,0,0,0,0,0,0,0,0],"sum_hessian":[1.09E2,7.2E1,3.7E1,7E1,2E0,1.4E1,2.3E1,1E1,6E1,1E0,1E0,5E0,9E0,1.9E1,4E0,1E0,9E0,5.9E1,1E0,1E0,4E0,3E0,6E0,1.8E1,1E0,5E0,4E0,5.5E1,4E0,3E0,1E0,1E0,2E0,4E0,2E0,5E0,1.3E1,3E0,2E0,3E0,1E0,3.4E1,2.1E1,3E0,1E0,1E0,1E0,2E0,2E0,1E0,4E0,5E0,8E0],"tree_param":{"num_deleted":"0","num_feature":"7","num_nodes":"53","size_leaf_vector":"0"}},{"base_weights":[2.7371338E-2,4.5869537E-2,-1.2751977E-1,2.5681305E-1,1.3822007E-2,-3.1974712E-1,1.1799876E-1,7.56134E-2,6.456089E-1,-3.134857E-1,3.337281E-2,-3.9287472E-1,5.9509277E-2,2.6350021E-2,2.0086415E-1,-6.9563123E-3,4.0937042E-1,-1.7938614E-3,1.6046323E-1,-1.4946365E-1,-5.864646E-1,3.4812927E-2,4.8065186E-4,-1.05321884E-1,5.978012E-2,2.6280904E-2,-2.0862103E-1,3.4522438E-1,-6.2656194E-2,-1.4204152E-1,2.418518E-3,1.0460091E-1,-1.9907633E-2,-7.900134E-3,3.9701614E-1,-3.3448982E-1,-6.620178E-2,5.3634155E-1,-7.553673E-2,4.713313E-2,-2.1167612E-1],"categories":[],"categories_nodes":[],"categories_segments":[],"categories_sizes":[],"default_left":[true,true,true,true,true,true,true,true,false,false,true,true,false,true,false,true,false,true,true,false,false,false,false,true,true,true,true,true,true,false,false,false,false,false,false,false,false,false,false,false,false],"id":24,"left_children":[1,3,5,7,9,11,13,15,-1,-1,17,19,-1,21,-1,23,-1,25,27,-1,-1,-1,-1,29,31,33,35,37,39,-1,-1,-1,-1,-1,-1,-1,-1,-1,-1,-1,-1],"loss_changes":[3.2102203E-1,6.65712E-1,6.0407424E-1,8.6702895E-1,5.671861E-1,2.1751845E-1,4.0274277E-2,2.784299E-1,0E0,0E0,3.7124363E-1,1.9507635E-1,0E0,8.5898745E-4,0E0,6.537726E-2,0E0,3.8871995E-1,7.636589E-1,0E0,0E0,0E0,0E0,1.6168285E-2,2.3512363E-2,7.507913E-1,1.2126529E-1,8.4466004E-1,1.5722412E-1,0E0,0E0,0E0,0E0,0E0,0E0,0E0,0E0,0E0,0E0,0E0,0E0],"parents":[2147483647,0,0,1,1,2,2,3,3,4,4,5,5,6,6,7,7,10,10,11,11,13,13,15,15,17,17,18,18,23,23,24,24,25,25,26,26,27,27,28,28],"right_children":[2,4,6,8,10,12,14,16,-1,-1,18,20,-1,22,-1,24,-1,26,28,-1,-1,-1,-1,30,32,34,36,38,40,-1,-1,-1,-1,-1,-1,-1,-1,-1,-1,-1,-1],"split_conditions":[7.564141E-1,2.578882E-1,8.1157184E-1,6.960734E-1,2.7708805E-1,7.9332423E-1,6.551578E-1,2.5364268E-1,2.2596312E-1,-1.0972E-1,6.075697E-1,7.4303806E-1,2.0828247E-2,8.575907E-1,7.030245E-2,6.938024E-1,1.4327964E-1,6.501957E-1,7.719203E-1,-5.2312277E-2,-2.052626E-1,1.2184524E-2,1.6822814E-4,2.4045455E-1,3.8890362E-1,8.2616395E-1,6.8162835E-1,6.825574E-1,6.3575244E-1,-4.971453E-2,8.464813E-4,3.6610316E-2,-6.967671E-3,-2.7650467E-3,1.3895565E-1,-1.17071435E-1,-2.3170624E-2,1.8771954E-1,-2.6437854E-2,1.6496595E-2,-7.4086644E-2],"split_indices":[0,2,0,3,2,4,1,2,0,0,0,4,0,0,0,0,0,6,3,0,0,0,0,2,3,3,6,5,1,0,0,0,0,0,0,0,0,0,0,0,0],"split_type":[0,0,0,0,0,0,0,0,0,0,0,0,0,0,0,0,0,0,0,0,0,0,0,0,0,0,0,0,0,0,0,0,0,0,0,0,0,0,0,0,0],"sum_hessian":[1.09E2,9.8E1,1.1E1,1.2E1,8.6E1,6E0,5E0,9E0,3E0,4E0,8.2E1,5E0,1E0,3E0,2E0,8E0,1E0,6.5E1,1.7E1,3E0,2E0,2E0,1E0,3E0,5E0,5.8E1,7E0,9E0,8E0,2E0,1E0,3E0,2E0,5.4E1,4E0,3E0,4E0,6E0,3E0,5E0,3E0],"tree_param":{"num_deleted":"0","num_feature":"7","num_nodes":"41","size_leaf_vector":"0"}},{"base_weights":[1.9480115E-2,3.3058148E-2,-1.5777206E-1,5.9594484E-3,2.3806E-1,-2.4342155E-1,-5.769806E-2,-4.8375387E-2,4.868577E-2,7.3979443E-1,6.3733675E-2,4.7200522E-3,-1.00883484E-1,-3.4700912E-1,1.2733514E-2,1.5217127E-1,-6.916542E-2,3.9216104E-1,-6.73933E-2,-2.6107788E-2,3.3187866E-2,-6.173029E-1,1.0036945E-2,3.764318E-1,-2.0715829E-2,2.5431085E-1,1.4755542E-2,-1.9443661E-1,1.2231715E-3,-1.6861598E-1,1.5751648E-1,5.5570602E-2,-6.328201E-2,1.6312122E-1,-9.645144E-2,3.5815695E-1,-1.4676666E-1,-1.1723137E-1,1.8827884E-1,7.0767403E-3,-2.9637274E-1,8.031607E-2,-6.2173463E-2,-2.707316E-1,-4.987526E-2],"categories":[],"categories_nodes":[],"categories_segments":[],"categories_sizes":[],"default_left":[true,true,true,true,true,false,true,true,true,false,true,true,false,true,true,true,true,false,true,false,false,false,true,false,true,true,true,true,true,true,false,false,false,false,false,false,false,false,false,false,false,false,false,false,false],"id":25,"left_children":[1,3,5,7,9,-1,11,13,15,-1,17,19,-1,21,23,25,27,-1,29,-1,-1,-1,31,-1,33,35,37,39,41,43,-1,-1,-1,-1,-1,-1,-1,-1,-1,-1,-1,-1,-1,-1,-1],"loss_changes":[2.6995662E-1,5.707755E-1,5.4525346E-2,2.1593574E-1,1.0024364E0,0E0,1.3953939E-2,7.526349E-1,6.4471126E-1,0E0,4.5708594E-1,3.4992655E-3,0E0,6.8174714E-1,4.3358946E-1,3.8924378E-1,2.2067937E-1,0E0,2.0868756E-1,0E0,0E0,0E0,1.687054E-2,0E0,4.7519267E-1,7.189709E-1,3.198086E-1,1.8697074E-1,9.023532E-2,5.924888E-2,0E0,0E0,0E0,0E0,0E0,0E0,0E0,0E0,0E0,0E0,0E0,0E0,0E0,0E0,0E0],"parents":[2147483647,0,0,1,1,2,2,3,3,4,4,6,6,7,7,8,8,10,10,11,11,13,13,14,14,15,15,16,16,18,18,22,22,24,24,25,25,26,26,27,27,28,28,29,29],"right_children":[2,4,6,8,10,-1,12,14,16,-1,18,20,-1,22,24,26,28,-1,30,-1,-1,-1,32,-1,34,36,38,40,42,44,-1,-1,-1,-1,-1,-1,-1,-1,-1,-1,-1,-1,-1,-1,-1],"split_conditions":[8.891616E-1,8.2616395E-1,6.023185E-1,5.3363776E-1,5.351956E-1,-8.5197546E-2,6.8252933E-1,4.3976134E-1,6.407613E-1,2.5892806E-1,2.459671E-1,6.367519E-1,-3.5309218E-2,7.1393037E-1,4.4748086E-1,6.825574E-1,6.459996E-1,1.3725637E-1,8.651581E-1,-9.137725E-3,1.1615753E-2,-2.16056E-1,5.0929356E-1,1.3175112E-1,3.3976355E-1,7.59169E-1,8.1243265E-1,4.5717514E-1,1.7313345E-1,7.339487E-1,5.513077E-2,1.944971E-2,-2.2148704E-2,5.709243E-2,-3.3758003E-2,1.2535493E-1,-5.136833E-2,-4.1030977E-2,6.589759E-2,2.4768591E-3,-1.03730455E-1,2.8110623E-2,-2.1760711E-2,-9.475606E-2,-1.745634E-2],"split_indices":[3,3,4,0,0,0,4,2,4,0,2,0,0,1,2,5,6,0,3,0,0,0,0,0,3,3,5,5,2,6,0,0,0,0,0,0,0,0,0,0,0,0,0,0,0],"split_type":[0,0,0,0,0,0,0,0,0,0,0,0,0,0,0,0,0,0,0,0,0,0,0,0,0,0,0,0,0,0,0,0,0,0,0,0,0,0,0,0,0,0,0,0,0],"sum_hessian":[1.09E2,1.02E2,7E0,9.1E1,1.1E1,3E0,4E0,4E1,5.1E1,2E0,9E0,2E0,2E0,6E0,3.4E1,2.7E1,2.4E1,2E0,7E0,1E0,1E0,3E0,3E0,2E0,3.2E1,1.5E1,1.2E1,8E0,1.6E1,5E0,2E0,2E0,1E0,9E0,2.3E1,1.2E1,3E0,7E0,5E0,3E0,5E0,7E0,9E0,2E0,3E0],"tree_param":{"num_deleted":"0","num_feature":"7","num_nodes":"45","size_leaf_vector":"0"}},{"base_weights":[1.4128945E-2,2.0796967E-1,4.8522227E-3,3.031273E-1,-8.6330414E-2,2.4835646E-2,-1.6998968E-1,5.003023E-2,-1.3987057E-1,-5.030956E-1,1.7812014E-2,2.2796849E-2,4.0026474E-1,-5.2140427E-1,-6.462574E-2,-8.286476E-2,-6.15551E-1,-3.1774838E-2,1.1104838E-1,3.9203897E-1,8.114728E-3,8.581289E-2,5.3603745E-1,-2.9672103E-2,-2.2455788E-1,-1.0673523E-1,4.5642853E-3,3.7839223E-2,-9.141774E-2,6.3591003E-1,1.1820984E-1,-6.4195395E-2,4.6792507E-2,-1.6773224E-2,1.4091969E-2],"categories":[],"categories_nodes":[],"categories_segments":[],"categories_sizes":[],"default_left":[true,true,true,false,false,true,true,true,true,true,true,true,true,false,true,false,false,true,false,false,true,false,true,true,false,false,true,false,false,false,false,false,false,false,false],"id":26,"left_children":[1,3,5,-1,-1,7,9,11,13,15,17,19,21,-1,23,-1,-1,25,-1,-1,27,-1,29,31,-1,-1,33,-1,-1,-1,-1,-1,-1,-1,-1],"loss_changes":[1.967936E-1,1.6619359E-1,3.745794E-1,0E0,0E0,4.053694E-1,6.970976E-1,7.920732E-1,3.395136E-1,1.3802135E-1,4.051493E-2,4.2509803E-1,2.101649E-1,0E0,6.0419418E-2,0E0,0E0,1.683114E-2,0E0,0E0,2.3126769E-1,0E0,9.1747284E-2,3.2041773E-2,0E0,0E0,1.2528528E-3,0E0,0E0,0E0,0E0,0E0,0E0,0E0,0E0],"parents":[2147483647,0,0,1,1,2,2,5,5,6,6,7,7,8,8,9,9,10,10,11,11,12,12,14,14,17,17,20,20,22,22,23,23,26,26],"right_children":[2,4,6,-1,-1,8,10,12,14,16,18,20,22,-1,24,-1,-1,26,-1,-1,28,-1,30,32,-1,-1,34,-1,-1,-1,-1,-1,-1,-1,-1],"split_conditions":[2.2448419E-1,6.470927E-1,8.4678113E-1,1.0609455E-1,-3.0215645E-2,5.5771303E-1,8.807168E-1,5.032412E-1,5.756158E-1,2.7555913E-1,2.4109693E-1,3.6185998E-1,4.1143274E-1,-1.824915E-1,4.280589E-1,-2.9002666E-2,-2.1544285E-1,5.469582E-1,3.8866933E-2,1.3721363E-1,6.80742E-1,3.003451E-2,7.6745355E-1,5.328535E-1,-7.859526E-2,-3.735733E-2,2.3518005E-1,1.3243727E-2,-3.199621E-2,2.2256851E-1,4.1373443E-2,-2.2468388E-2,1.6377376E-2,-5.870628E-3,4.932189E-3],"split_indices":[4,3,5,0,0,2,5,2,2,0,6,4,1,0,0,0,0,1,0,0,5,0,1,4,0,0,4,0,0,0,0,0,0,0,0],"split_type":[0,0,0,0,0,0,0,0,0,0,0,0,0,0,0,0,0,0,0,0,0,0,0,0,0,0,0,0,0,0,0,0,0,0,0],"sum_hessian":[1.09E2,4E0,1.05E2,3E0,1E0,9.5E1,1E1,8.3E1,1.2E1,3E0,7E0,7.8E1,5E0,1E0,1.1E1,1E0,2E0,5E0,2E0,2E0,7.6E1,2E0,3E0,1E1,1E0,1E0,4E0,5.9E1,1.7E1,2E0,1E0,7E0,3E0,1E0,3E0],"tree_param":{"num_deleted":"0","num_feature":"7","num_nodes":"35","size_leaf_vector":"0"}},{"base_weights":[8.97685E-3,2.3327516E-2,-9.989563E-2,1.6476886E-1,3.5502336E-3,-2.0433974E-1,5.601247E-2,-8.475723E-2,3.0012655E-1,-1.8210558E-2,1.7292938E-1,-3.0362207E-1,-2.9151917E-2,-1.0799408E-2,1.2642415E-1,-1.2493769E-1,-1.6324362E-2,6.853676E-2,4.2537308E-1,2.2711385E-2,-1.6638409E-1,4.943212E-1,3.0791283E-2,-8.941396E-2,-4.166228E-1,2.8419495E-2,-5.781555E-2,8.525848E-3,-2.0083109E-2,-1.9382477E-2,1.0430399E-1,-9.985583E-3,2.8104264E-1,-5.8759373E-2,-3.5390282E-1,6.39698E-1,1.0178375E-1,6.0178485E-2,-8.7459564E-2,-6.0567975E-2,5.51593E-2,3.975773E-1,9.424734E-2,-1.1672315E-1,2.8942108E-1,-1.3839722E-2,-4.191475E-1,2.2675324E-2,1.0262426E-1],"categories":[],"categories_nodes":[],"categories_segments":[],"categories_sizes":[],"default_left":[true,true,true,true,true,true,true,true,true,true,true,true,true,true,false,false,false,true,false,true,true,true,true,false,false,false,false,false,false,false,false,true,true,true,true,false,false,true,false,false,false,false,false,false,false,false,false,false,false],"id":27,"left_children":[1,3,5,7,9,11,13,15,17,19,21,23,25,27,-1,-1,-1,29,-1,31,33,35,37,-1,-1,-1,-1,-1,-1,-1,-1,39,41,43,45,-1,-1,47,-1,-1,-1,-1,-1,-1,-1,-1,-1,-1,-1],"loss_changes":[1.741935E-1,2.7355292E-1,2.2313344E-1,4.3074122E-1,3.2381585E-1,1.3029325E-1,2.9591328E-2,1.1708792E-2,2.0289284E-1,4.7673556E-1,4.415994E-1,8.3776444E-2,8.243913E-3,8.8886515E-4,0E0,0E0,0E0,1.4600184E-2,0E0,5.264986E-1,3.2229292E-1,1.0608673E-1,3.3063676E-2,0E0,0E0,0E0,0E0,0E0,0E0,0E0,0E0,1.878712E-1,1.1490631E-1,2.7596438E-1,1.2732297E-1,0E0,0E0,8.815918E-3,0E0,0E0,0E0,0E0,0E0,0E0,0E0,0E0,0E0,0E0,0E0],"parents":[2147483647,0,0,1,1,2,2,3,3,4,4,5,5,6,6,7,7,8,8,9,9,10,10,11,11,12,12,13,13,17,17,19,19,20,20,21,21,22,22,31,31,32,32,33,33,34,34,37,37],"right_children":[2,4,6,8,10,12,14,16,18,20,22,24,26,28,-1,-1,-1,30,-1,32,34,36,38,-1,-1,-1,-1,-1,-1,-1,-1,40,42,44,46,-1,-1,48,-1,-1,-1,-1,-1,-1,-1,-1,-1,-1,-1],"split_conditions":[7.4746513E-1,2.578882E-1,8.1157184E-1,5.165341E-1,7.703321E-1,6.580584E-1,6.551578E-1,7.254808E-1,6.401196E-1,6.060399E-1,7.963014E-1,7.38552E-1,6.309793E-1,8.361174E-1,4.424845E-2,-4.372819E-2,-5.7135266E-3,7.2084546E-1,1.4888057E-1,5.6858385E-1,7.785864E-1,6.397009E-1,6.1469674E-1,-3.1294886E-2,-1.4581798E-1,9.946823E-3,-2.0235443E-2,2.984047E-3,-7.029088E-3,-6.783867E-3,3.6506396E-2,5.653833E-1,5.82909E-1,7.4590206E-1,4.261136E-1,2.2389431E-1,3.5624314E-2,5.319985E-1,-3.0610846E-2,-2.119879E-2,1.9305754E-2,1.3915205E-1,3.298657E-2,-4.08531E-2,1.0129738E-1,-4.8439023E-3,-1.4670162E-1,7.936363E-3,3.591849E-2],"split_indices":[0,2,0,6,1,3,1,5,1,1,1,4,1,0,0,0,0,0,0,1,5,0,0,0,0,0,0,0,0,0,0,6,1,5,0,0,0,3,0,0,0,0,0,0,0,0,0,0,0],"split_type":[0,0,0,0,0,0,0,0,0,0,0,0,0,0,0,0,0,0,0,0,0,0,0,0,0,0,0,0,0,0,0,0,0,0,0,0,0,0,0,0,0,0,0,0,0,0,0,0,0],"sum_hessian":[1.09E2,9.7E1,1.2E1,1.1E1,8.6E1,7E0,5E0,4E0,7E0,7.7E1,9E0,4E0,3E0,3E0,2E0,2E0,2E0,3E0,4E0,6.1E1,1.6E1,2E0,7E0,2E0,2E0,1E0,2E0,1E0,2E0,1E0,2E0,5.5E1,6E0,1.1E1,5E0,1E0,1E0,6E0,1E0,3.1E1,2.4E1,3E0,3E0,1E1,1E0,1E0,4E0,4E0,2E0],"tree_param":{"num_deleted":"0","num_feature":"7","num_nodes":"49","size_leaf_vector":"0"}},{"base_weights":[8.871286E-3,1.8937713E-2,-1.2184286E-1,2.8772878E-3,1.2990394E-1,-1.9766362E-1,-6.3625336E-2,1.6731644E-1,-6.60631E-3,5.5610657E-1,4.804484E-2,-3.1040192E-2,-8.586375E-2,2.3945713E-1,-6.062317E-2,-6.1354917E-2,2.7987374E-2,-1.6875457E-2,2.484309E-1,-4.8792522E-2,1.1108398E-2,-2.2629632E-3,-2.531209E-1,3.6548615E-1,-6.3222502E-3,1.3216908E-1,-1.9235381E-1,7.21231E-2,-1.3593158E-1,1.367836E-1,-3.2836205E-1,1.2362671E-1,4.8551688E-1,-6.579924E-2,2.1047864E-2,1.5275879E-1,1.46102905E-2],"categories":[],"categories_nodes":[],"categories_segments":[],"categories_sizes":[],"default_left":[true,true,true,true,true,false,true,true,true,false,true,true,false,false,false,true,true,true,false,false,false,true,true,true,true,true,false,false,false,false,false,false,false,false,false,false,false],"id":28,"left_children":[1,3,5,7,9,-1,11,13,15,-1,17,19,-1,-1,-1,21,23,25,-1,-1,-1,27,29,31,33,35,-1,-1,-1,-1,-1,-1,-1,-1,-1,-1,-1],"loss_changes":[1.470481E-1,1.831892E-1,2.2736363E-2,1.4301755E-1,4.2683333E-1,0E0,1.6826261E-3,9.6735254E-2,1.6649134E-1,0E0,1.6030185E-1,3.5349494E-3,0E0,0E0,0E0,3.847093E-1,6.276013E-1,2.8696415E-1,0E0,0E0,0E0,2.7826706E-1,2.796095E-1,8.5129976E-2,8.277953E-2,1.2291156E-2,0E0,0E0,0E0,0E0,0E0,0E0,0E0,0E0,0E0,0E0,0E0],"parents":[2147483647,0,0,1,1,2,2,3,3,4,4,6,6,7,7,8,8,10,10,11,11,15,15,16,16,17,17,21,21,22,22,23,23,24,24,25,25],"right_children":[2,4,6,8,10,-1,12,14,16,-1,18,20,-1,-1,-1,22,24,26,-1,-1,-1,28,30,32,34,36,-1,-1,-1,-1,-1,-1,-1,-1,-1,-1,-1],"split_conditions":[8.891616E-1,8.1849957E-1,5.6512773E-1,2.2448419E-1,5.3799486E-1,-6.918227E-2,6.8252933E-1,6.470927E-1,5.100173E-1,1.946373E-1,5.849894E-1,6.609808E-1,-3.0052312E-2,8.3809994E-2,-2.1218108E-2,4.9446803E-1,5.232127E-1,4.2668706E-1,8.695081E-2,-1.7077383E-2,3.8879395E-3,7.821408E-1,3.3976355E-1,4.0121248E-1,2.2822735E-1,2.074646E-1,-6.732383E-2,2.5243085E-2,-4.757605E-2,4.787426E-2,-1.1492672E-1,4.3269347E-2,1.699309E-1,-2.3029732E-2,7.3667523E-3,5.3465575E-2,5.1136017E-3],"split_indices":[3,3,0,4,4,0,4,3,4,0,1,0,0,0,0,4,4,1,0,0,0,5,3,3,2,5,0,0,0,0,0,0,0,0,0,0,0],"split_type":[0,0,0,0,0,0,0,0,0,0,0,0,0,0,0,0,0,0,0,0,0,0,0,0,0,0,0,0,0,0,0,0,0,0,0,0,0],"sum_hessian":[1.09E2,1.02E2,7E0,9E1,1.2E1,2E0,5E0,4E0,8.6E1,1E0,1.1E1,3E0,2E0,3E0,1E0,3.3E1,5.3E1,9E0,2E0,2E0,1E0,2.6E1,7E0,4E0,4.9E1,5E0,4E0,1.7E1,9E0,1E0,6E0,2E0,2E0,1.5E1,3.4E1,4E0,1E0],"tree_param":{"num_deleted":"0","num_feature":"7","num_nodes":"37","size_leaf_vector":"0"}},{"base_weights":[8.776335E-3,1.66156E-2,-9.325123E-2,3.7459908E-3,1.0542473E-1,-1.515414E-1,-4.8564274E-2,6.894705E-2,-1.2164348E-2,4.58786E-1,3.7745792E-2,-2.3474693E-2,-6.582896E-2,1.209586E-2,2.1434097E-1,-3.6746216E-1,-2.2635264E-3,-3.2910435E-3,2.445755E-1,-3.740819E-2,9.162903E-3,9.2071295E-2,-8.103262E-2,-8.022465E-2,4.524028E-2,9.567261E-2,-1.01706184E-1,2.1167374E-1,1.6924858E-2,-1.318655E-1,-9.941578E-3,-1.3205029E-2,-2.4612308E-1,9.916843E-2,-2.9824734E-2,1.2234497E-1,2.8218588E-2,-1.8437703E-1,-1.42765045E-2],"categories":[],"categories_nodes":[],"categories_segments":[],"categories_sizes":[],"default_left":[true,true,true,true,true,false,true,true,true,false,true,true,false,true,false,false,true,true,false,false,false,true,true,true,true,true,true,false,false,false,false,false,false,false,false,false,false,false,false],"id":29,"left_children":[1,3,5,7,9,-1,11,13,15,-1,17,19,-1,21,-1,-1,23,25,-1,-1,-1,27,29,31,33,35,37,-1,-1,-1,-1,-1,-1,-1,-1,-1,-1,-1,-1],"loss_changes":[8.952974E-2,1.1732778E-1,1.34789795E-2,9.5239446E-2,2.9357928E-1,0E0,1.0536676E-3,1.4619209E-1,2.59481E-1,0E0,1.0265656E-1,2.161791E-3,0E0,1.1173265E-1,0E0,0E0,2.7398124E-1,1.1686524E-1,0E0,0E0,0E0,6.831902E-2,2.3985386E-2,3.0806655E-1,1.8917105E-1,7.3425435E-3,4.0735055E-2,0E0,0E0,0E0,0E0,0E0,0E0,0E0,0E0,0E0,0E0,0E0,0E0],"parents":[2147483647,0,0,1,1,2,2,3,3,4,4,6,6,7,7,8,8,10,10,11,11,13,13,16,16,17,17,21,21,22,22,23,23,24,24,25,25,26,26],"right_children":[2,4,6,8,10,-1,12,14,16,-1,18,20,-1,22,-1,-1,24,26,-1,-1,-1,28,30,32,34,36,38,-1,-1,-1,-1,-1,-1,-1,-1,-1,-1,-1,-1],"split_conditions":[8.891616E-1,8.1849957E-1,5.6512773E-1,3.529982E-1,5.3799486E-1,-5.3039487E-2,6.8252933E-1,3.436936E-1,3.5574675E-1,1.605751E-1,6.4002967E-1,6.609808E-1,-2.3040134E-2,5.2342534E-1,7.501934E-2,-1.2861176E-1,5.168878E-1,4.2668706E-1,8.560143E-2,-1.3092867E-2,3.207016E-3,2.2148739E-1,7.773745E-1,4.010229E-1,6.0919964E-1,3.6406368E-1,6.4241505E-1,7.408581E-2,5.9237E-3,-4.6152923E-2,-3.4795522E-3,-4.62176E-3,-8.614308E-2,3.470895E-2,-1.0438656E-2,4.282074E-2,9.8765055E-3,-6.453196E-2,-4.9967766E-3],"split_indices":[3,3,0,4,4,0,4,4,4,0,1,0,0,3,0,0,1,1,0,0,0,4,3,1,4,1,0,0,0,0,0,0,0,0,0,0,0,0,0],"split_type":[0,0,0,0,0,0,0,0,0,0,0,0,0,0,0,0,0,0,0,0,0,0,0,0,0,0,0,0,0,0,0,0,0,0,0,0,0,0,0],"sum_hessian":[1.09E2,1.02E2,7E0,9E1,1.2E1,2E0,5E0,1.7E1,7.3E1,1E0,1.1E1,3E0,2E0,1.3E1,4E0,1E0,7.2E1,1E1,1E0,2E0,1E0,7E0,6E0,2.7E1,4.5E1,5E0,5E0,2E0,5E0,3E0,3E0,2E1,7E0,2.6E1,1.9E1,3E0,2E0,2E0,3E0],"tree_param":{"num_deleted":"0","num_feature":"7","num_nodes":"39","size_leaf_vector":"0"}},{"base_weights":[6.19297E-3,1.3252485E-2,-6.572743E-2,3.431145E-3,2.505622E-1,-1.9268863E-1,-9.901047E-3,5.8008574E-2,-1.0429358E-2,5.046018E-2,4.254341E-1,-6.0374577E-2,9.434637E-2,-1.0229384E-2,1.8619755E-1,1.6688654E-2,-1.03256434E-1,-5.5217743E-3,-1.1338679E-1,2.9432297E-2,1.1208725E-1,-6.200838E-2,5.0407954E-2,-3.313446E-2,2.282753E-1,-4.6674493E-3,2.167902E-1,-4.6109125E-2,-2.0986621E-1,1.5262604E-2,-1.7537436E-2,4.9123127E-2,-1.072394E-1,6.642227E-2,6.9147744E-3,2.3395538E-2,2.6457214E-1,1.8140005E-2,-9.170707E-2,2.704464E-1,-2.5745392E-2,-9.69703E-2,1.5575154E-1,9.410858E-3,-2.556038E-1],"categories":[],"categories_nodes":[],"categories_segments":[],"categories_sizes":[],"default_left":[true,true,true,true,true,false,true,true,true,false,false,true,true,true,true,true,true,true,false,false,false,true,true,false,true,true,true,true,true,false,false,false,false,false,false,false,false,false,false,false,false,false,false,false,false],"id":30,"left_children":[1,3,5,7,9,-1,11,13,15,-1,-1,17,19,21,23,25,27,29,-1,-1,-1,31,33,-1,35,37,39,41,43,-1,-1,-1,-1,-1,-1,-1,-1,-1,-1,-1,-1,-1,-1,-1,-1],"loss_changes":[5.6720592E-2,2.3454091E-1,6.8970025E-2,7.473911E-2,1.18501425E-1,0E0,4.7790002E-2,1.7685178E-1,2.005888E-1,0E0,0E0,1.6821112E-2,1.5591457E-4,4.7082085E-2,7.2166756E-2,2.6596197E-1,9.998757E-2,1.2666191E-3,0E0,0E0,0E0,4.5480672E-2,4.4163E-3,0E0,3.842911E-2,1.1481724E-1,8.504397E-2,1.485726E-1,6.2580645E-2,0E0,0E0,0E0,0E0,0E0,0E0,0E0,0E0,0E0,0E0,0E0,0E0,0E0,0E0,0E0,0E0],"parents":[2147483647,0,0,1,1,2,2,3,3,4,4,6,6,7,7,8,8,11,11,12,12,13,13,14,14,15,15,16,16,17,17,21,21,22,22,24,24,25,25,26,26,27,27,28,28],"right_children":[2,4,6,8,10,-1,12,14,16,-1,-1,18,20,22,24,26,28,30,-1,-1,-1,32,34,-1,36,38,40,42,44,-1,-1,-1,-1,-1,-1,-1,-1,-1,-1,-1,-1,-1,-1,-1,-1],"split_conditions":[8.093101E-1,7.891741E-1,4.8025537E-1,2.578882E-1,6.106197E-1,-6.744102E-2,6.179096E-1,2.2822735E-1,6.060399E-1,1.7661063E-2,1.4890194E-1,3.859163E-1,6.951568E-1,7.6950645E-1,6.7325926E-1,5.7491994E-1,7.785864E-1,5.285774E-1,-3.9685376E-2,1.0301304E-2,3.9230537E-2,1.6941826E-1,8.361174E-1,-1.1597061E-2,5.4478884E-1,5.218369E-1,6.214048E-1,7.4196696E-1,4.261136E-1,5.341911E-3,-6.138102E-3,1.7193094E-2,-3.753379E-2,2.3247793E-2,2.420171E-3,8.188439E-3,9.260025E-2,6.3490015E-3,-3.2097474E-2,9.465624E-2,-9.010887E-3,-3.3939604E-2,5.4513037E-2,3.2938004E-3,-8.946133E-2],"split_indices":[1,1,5,2,0,0,3,2,1,0,0,3,0,4,0,1,5,0,0,0,0,2,0,0,1,1,0,5,0,0,0,0,0,0,0,0,0,0,0,0,0,0,0,0,0],"split_type":[0,0,0,0,0,0,0,0,0,0,0,0,0,0,0,0,0,0,0,0,0,0,0,0,0,0,0,0,0,0,0,0,0,0,0,0,0,0,0,0,0,0,0,0,0],"sum_hessian":[1.09E2,1E2,9E0,9.7E1,3E0,2E0,7E0,1.9E1,7.8E1,2E0,1E0,5E0,2E0,1.3E1,6E0,6.1E1,1.7E1,3E0,2E0,1E0,1E0,7E0,6E0,1E0,5E0,5.6E1,5E0,1.2E1,5E0,1E0,2E0,2E0,5E0,4E0,2E0,1E0,4E0,4.5E1,1.1E1,4E0,1E0,1E1,2E0,1E0,4E0],"tree_param":{"num_deleted":"0","num_feature":"7","num_nodes":"45","size_leaf_vector":"0"}},{"base_weights":[5.8166506E-3,-2.1617763E-2,2.4433801E-2,8.231248E-2,-4.6313826E-2,2.2745666E-1,7.6668956E-3,-2.0633316E-2,1.6879578E-1,-1.3960426E-1,-1.4754075E-3,1.6952515E-2,3.6214194E-1,-3.6598295E-2,2.9616946E-2,-4.795901E-2,1.3570149E-2,4.267502E-2,1.8965721E-1,2.772195E-3,-2.8244272E-1,1.7925104E-2,-1.561877E-1,2.4003983E-3,-1.344951E-1,3.7532806E-1,1.2030625E-2,8.937582E-2,-2.5842476E-1,-3.188072E-1,-5.0310135E-2,7.421684E-2,-9.619544E-3,-1.3268534E-2,1.1871719E-1,-1.4663544E-1,-3.6896706E-2,5.2729387E-2,-5.4856777E-2,-2.6649475E-2,1.17910765E-1,2.4113465E-2,1.18291855E-1,6.944227E-2,-7.190704E-2,6.5916695E-2,-3.0521393E-2,1.2894566E-1,-1.1758932E-2,8.39901E-2,-9.335914E-2],"categories":[],"categories_nodes":[],"categories_segments":[],"categories_sizes":[],"default_left":[true,true,true,true,true,true,true,true,true,true,true,false,false,true,true,false,false,false,false,true,true,true,false,true,true,false,true,true,false,false,false,true,true,true,false,false,false,true,true,false,false,false,false,false,false,false,false,false,false,false,false],"id":31,"left_children":[1,3,5,7,9,11,13,15,17,19,21,-1,-1,23,25,-1,-1,-1,-1,27,29,31,-1,33,35,-1,37,39,-1,-1,-1,41,43,45,-1,-1,-1,47,49,-1,-1,-1,-1,-1,-1,-1,-1,-1,-1,-1,-1],"loss_changes":[5.671077E-2,1.1931227E-1,2.2292441E-1,8.3610654E-2,1.5456484E-1,1.3561982E-1,6.132457E-2,5.323978E-3,5.061671E-3,2.4482499E-1,8.083862E-2,0E0,0E0,8.0497645E-2,2.5083563E-1,0E0,0E0,0E0,0E0,1.8144113E-1,3.460908E-2,3.7926797E-2,0E0,3.0736165E-2,1.6988963E-3,0E0,1.1450418E-1,2.3006912E-2,0E0,0E0,0E0,1.481403E-2,8.871096E-2,2.2504443E-2,0E0,0E0,0E0,1.2930782E-1,9.3376175E-2,0E0,0E0,0E0,0E0,0E0,0E0,0E0,0E0,0E0,0E0,0E0,0E0],"parents":[2147483647,0,0,1,1,2,2,3,3,4,4,5,5,6,6,7,7,8,8,9,9,10,10,13,13,14,14,19,19,20,20,21,21,23,23,24,24,26,26,27,27,31,31,32,32,33,33,37,37,38,38],"right_children":[2,4,6,8,10,12,14,16,18,20,22,-1,-1,24,26,-1,-1,-1,-1,28,30,32,-1,34,36,-1,38,40,-1,-1,-1,42,44,46,-1,-1,-1,48,50,-1,-1,-1,-1,-1,-1,-1,-1,-1,-1,-1,-1],"split_conditions":[4.5435026E-1,3.5289288E-1,4.800158E-1,2.0369926E-1,5.100173E-1,5.8657277E-1,5.653833E-1,3.425178E-1,4.153676E-1,3.3976355E-1,7.6604885E-1,5.93338E-3,1.2674968E-1,5.015844E-1,5.706292E-1,-1.6785653E-2,4.7495523E-3,1.4936256E-2,6.6380024E-2,6.1140084E-1,7.331558E-1,6.39228E-1,-5.4665692E-2,4.910645E-1,6.9790494E-1,1.3136482E-1,3.4979394E-1,3.365441E-1,-9.044866E-2,-1.11582525E-1,-1.7608548E-2,6.5531516E-1,5.603032E-1,1.05834104E-1,4.1551016E-2,-5.1322404E-2,-1.2913846E-2,7.112521E-1,6.54096E-1,-9.327316E-3,4.1268766E-2,8.439712E-3,4.140215E-2,2.4304794E-2,-2.5167465E-2,2.3070842E-2,-1.0682487E-2,4.5130983E-2,-4.115626E-3,2.9396534E-2,-3.26757E-2],"split_indices":[3,4,3,6,4,5,6,0,1,3,0,0,0,0,6,0,0,0,0,1,1,5,0,0,3,0,2,0,0,0,0,0,4,0,0,0,0,0,3,0,0,0,0,0,0,0,0,0,0,0,0],"split_type":[0,0,0,0,0,0,0,0,0,0,0,0,0,0,0,0,0,0,0,0,0,0,0,0,0,0,0,0,0,0,0,0,0,0,0,0,0,0,0,0,0,0,0,0,0,0,0,0,0,0,0],"sum_hessian":[1.09E2,4.4E1,6.5E1,8E0,3.6E1,4E0,6.1E1,4E0,